tree
version=v3
num_class=1
num_tree_per_iteration=1
label_index=0
max_feature_idx=2139
objective=binary sigmoid:1
feature_names=Column_0 Column_1 Column_2 Column_3 Column_4 Column_5 Column_6 Column_7 Column_8 Column_9 Column_10 Column_11 Column_12 Column_13 Column_14 Column_15 Column_16 Column_17 Column_18 Column_19 Column_20 Column_21 Column_22 Column_23 Column_24 Column_25 Column_26 Column_27 Column_28 Column_29 Column_30 Column_31 Column_32 Column_33 Column_34 Column_35 Column_36 Column_37 Column_38 Column_39 Column_40 Column_41 Column_42 Column_43 Column_44 Column_45 Column_46 Column_47 Column_48 Column_49 Column_50 Column_51 Column_52 Column_53 Column_54 Column_55 Column_56 Column_57 Column_58 Column_59 Column_60 Column_61 Column_62 Column_63 Column_64 Column_65 Column_66 Column_67 Column_68 Column_69 Column_70 Column_71 Column_72 Column_73 Column_74 Column_75 Column_76 Column_77 Column_78 Column_79 Column_80 Column_81 Column_82 Column_83 Column_84 Column_85 Column_86 Column_87 Column_88 Column_89 Column_90 Column_91 Column_92 Column_93 Column_94 Column_95 Column_96 Column_97 Column_98 Column_99 Column_100 Column_101 Column_102 Column_103 Column_104 Column_105 Column_106 Column_107 Column_108 Column_109 Column_110 Column_111 Column_112 Column_113 Column_114 Column_115 Column_116 Column_117 Column_118 Column_119 Column_120 Column_121 Column_122 Column_123 Column_124 Column_125 Column_126 Column_127 Column_128 Column_129 Column_130 Column_131 Column_132 Column_133 Column_134 Column_135 Column_136 Column_137 Column_138 Column_139 Column_140 Column_141 Column_142 Column_143 Column_144 Column_145 Column_146 Column_147 Column_148 Column_149 Column_150 Column_151 Column_152 Column_153 Column_154 Column_155 Column_156 Column_157 Column_158 Column_159 Column_160 Column_161 Column_162 Column_163 Column_164 Column_165 Column_166 Column_167 Column_168 Column_169 Column_170 Column_171 Column_172 Column_173 Column_174 Column_175 Column_176 Column_177 Column_178 Column_179 Column_180 Column_181 Column_182 Column_183 Column_184 Column_185 Column_186 Column_187 Column_188 Column_189 Column_190 Column_191 Column_192 Column_193 Column_194 Column_195 Column_196 Column_197 Column_198 Column_199 Column_200 Column_201 Column_202 Column_203 Column_204 Column_205 Column_206 Column_207 Column_208 Column_209 Column_210 Column_211 Column_212 Column_213 Column_214 Column_215 Column_216 Column_217 Column_218 Column_219 Column_220 Column_221 Column_222 Column_223 Column_224 Column_225 Column_226 Column_227 Column_228 Column_229 Column_230 Column_231 Column_232 Column_233 Column_234 Column_235 Column_236 Column_237 Column_238 Column_239 Column_240 Column_241 Column_242 Column_243 Column_244 Column_245 Column_246 Column_247 Column_248 Column_249 Column_250 Column_251 Column_252 Column_253 Column_254 Column_255 Column_256 Column_257 Column_258 Column_259 Column_260 Column_261 Column_262 Column_263 Column_264 Column_265 Column_266 Column_267 Column_268 Column_269 Column_270 Column_271 Column_272 Column_273 Column_274 Column_275 Column_276 Column_277 Column_278 Column_279 Column_280 Column_281 Column_282 Column_283 Column_284 Column_285 Column_286 Column_287 Column_288 Column_289 Column_290 Column_291 Column_292 Column_293 Column_294 Column_295 Column_296 Column_297 Column_298 Column_299 Column_300 Column_301 Column_302 Column_303 Column_304 Column_305 Column_306 Column_307 Column_308 Column_309 Column_310 Column_311 Column_312 Column_313 Column_314 Column_315 Column_316 Column_317 Column_318 Column_319 Column_320 Column_321 Column_322 Column_323 Column_324 Column_325 Column_326 Column_327 Column_328 Column_329 Column_330 Column_331 Column_332 Column_333 Column_334 Column_335 Column_336 Column_337 Column_338 Column_339 Column_340 Column_341 Column_342 Column_343 Column_344 Column_345 Column_346 Column_347 Column_348 Column_349 Column_350 Column_351 Column_352 Column_353 Column_354 Column_355 Column_356 Column_357 Column_358 Column_359 Column_360 Column_361 Column_362 Column_363 Column_364 Column_365 Column_366 Column_367 Column_368 Column_369 Column_370 Column_371 Column_372 Column_373 Column_374 Column_375 Column_376 Column_377 Column_378 Column_379 Column_380 Column_381 Column_382 Column_383 Column_384 Column_385 Column_386 Column_387 Column_388 Column_389 Column_390 Column_391 Column_392 Column_393 Column_394 Column_395 Column_396 Column_397 Column_398 Column_399 Column_400 Column_401 Column_402 Column_403 Column_404 Column_405 Column_406 Column_407 Column_408 Column_409 Column_410 Column_411 Column_412 Column_413 Column_414 Column_415 Column_416 Column_417 Column_418 Column_419 Column_420 Column_421 Column_422 Column_423 Column_424 Column_425 Column_426 Column_427 Column_428 Column_429 Column_430 Column_431 Column_432 Column_433 Column_434 Column_435 Column_436 Column_437 Column_438 Column_439 Column_440 Column_441 Column_442 Column_443 Column_444 Column_445 Column_446 Column_447 Column_448 Column_449 Column_450 Column_451 Column_452 Column_453 Column_454 Column_455 Column_456 Column_457 Column_458 Column_459 Column_460 Column_461 Column_462 Column_463 Column_464 Column_465 Column_466 Column_467 Column_468 Column_469 Column_470 Column_471 Column_472 Column_473 Column_474 Column_475 Column_476 Column_477 Column_478 Column_479 Column_480 Column_481 Column_482 Column_483 Column_484 Column_485 Column_486 Column_487 Column_488 Column_489 Column_490 Column_491 Column_492 Column_493 Column_494 Column_495 Column_496 Column_497 Column_498 Column_499 Column_500 Column_501 Column_502 Column_503 Column_504 Column_505 Column_506 Column_507 Column_508 Column_509 Column_510 Column_511 Column_512 Column_513 Column_514 Column_515 Column_516 Column_517 Column_518 Column_519 Column_520 Column_521 Column_522 Column_523 Column_524 Column_525 Column_526 Column_527 Column_528 Column_529 Column_530 Column_531 Column_532 Column_533 Column_534 Column_535 Column_536 Column_537 Column_538 Column_539 Column_540 Column_541 Column_542 Column_543 Column_544 Column_545 Column_546 Column_547 Column_548 Column_549 Column_550 Column_551 Column_552 Column_553 Column_554 Column_555 Column_556 Column_557 Column_558 Column_559 Column_560 Column_561 Column_562 Column_563 Column_564 Column_565 Column_566 Column_567 Column_568 Column_569 Column_570 Column_571 Column_572 Column_573 Column_574 Column_575 Column_576 Column_577 Column_578 Column_579 Column_580 Column_581 Column_582 Column_583 Column_584 Column_585 Column_586 Column_587 Column_588 Column_589 Column_590 Column_591 Column_592 Column_593 Column_594 Column_595 Column_596 Column_597 Column_598 Column_599 Column_600 Column_601 Column_602 Column_603 Column_604 Column_605 Column_606 Column_607 Column_608 Column_609 Column_610 Column_611 Column_612 Column_613 Column_614 Column_615 Column_616 Column_617 Column_618 Column_619 Column_620 Column_621 Column_622 Column_623 Column_624 Column_625 Column_626 Column_627 Column_628 Column_629 Column_630 Column_631 Column_632 Column_633 Column_634 Column_635 Column_636 Column_637 Column_638 Column_639 Column_640 Column_641 Column_642 Column_643 Column_644 Column_645 Column_646 Column_647 Column_648 Column_649 Column_650 Column_651 Column_652 Column_653 Column_654 Column_655 Column_656 Column_657 Column_658 Column_659 Column_660 Column_661 Column_662 Column_663 Column_664 Column_665 Column_666 Column_667 Column_668 Column_669 Column_670 Column_671 Column_672 Column_673 Column_674 Column_675 Column_676 Column_677 Column_678 Column_679 Column_680 Column_681 Column_682 Column_683 Column_684 Column_685 Column_686 Column_687 Column_688 Column_689 Column_690 Column_691 Column_692 Column_693 Column_694 Column_695 Column_696 Column_697 Column_698 Column_699 Column_700 Column_701 Column_702 Column_703 Column_704 Column_705 Column_706 Column_707 Column_708 Column_709 Column_710 Column_711 Column_712 Column_713 Column_714 Column_715 Column_716 Column_717 Column_718 Column_719 Column_720 Column_721 Column_722 Column_723 Column_724 Column_725 Column_726 Column_727 Column_728 Column_729 Column_730 Column_731 Column_732 Column_733 Column_734 Column_735 Column_736 Column_737 Column_738 Column_739 Column_740 Column_741 Column_742 Column_743 Column_744 Column_745 Column_746 Column_747 Column_748 Column_749 Column_750 Column_751 Column_752 Column_753 Column_754 Column_755 Column_756 Column_757 Column_758 Column_759 Column_760 Column_761 Column_762 Column_763 Column_764 Column_765 Column_766 Column_767 Column_768 Column_769 Column_770 Column_771 Column_772 Column_773 Column_774 Column_775 Column_776 Column_777 Column_778 Column_779 Column_780 Column_781 Column_782 Column_783 Column_784 Column_785 Column_786 Column_787 Column_788 Column_789 Column_790 Column_791 Column_792 Column_793 Column_794 Column_795 Column_796 Column_797 Column_798 Column_799 Column_800 Column_801 Column_802 Column_803 Column_804 Column_805 Column_806 Column_807 Column_808 Column_809 Column_810 Column_811 Column_812 Column_813 Column_814 Column_815 Column_816 Column_817 Column_818 Column_819 Column_820 Column_821 Column_822 Column_823 Column_824 Column_825 Column_826 Column_827 Column_828 Column_829 Column_830 Column_831 Column_832 Column_833 Column_834 Column_835 Column_836 Column_837 Column_838 Column_839 Column_840 Column_841 Column_842 Column_843 Column_844 Column_845 Column_846 Column_847 Column_848 Column_849 Column_850 Column_851 Column_852 Column_853 Column_854 Column_855 Column_856 Column_857 Column_858 Column_859 Column_860 Column_861 Column_862 Column_863 Column_864 Column_865 Column_866 Column_867 Column_868 Column_869 Column_870 Column_871 Column_872 Column_873 Column_874 Column_875 Column_876 Column_877 Column_878 Column_879 Column_880 Column_881 Column_882 Column_883 Column_884 Column_885 Column_886 Column_887 Column_888 Column_889 Column_890 Column_891 Column_892 Column_893 Column_894 Column_895 Column_896 Column_897 Column_898 Column_899 Column_900 Column_901 Column_902 Column_903 Column_904 Column_905 Column_906 Column_907 Column_908 Column_909 Column_910 Column_911 Column_912 Column_913 Column_914 Column_915 Column_916 Column_917 Column_918 Column_919 Column_920 Column_921 Column_922 Column_923 Column_924 Column_925 Column_926 Column_927 Column_928 Column_929 Column_930 Column_931 Column_932 Column_933 Column_934 Column_935 Column_936 Column_937 Column_938 Column_939 Column_940 Column_941 Column_942 Column_943 Column_944 Column_945 Column_946 Column_947 Column_948 Column_949 Column_950 Column_951 Column_952 Column_953 Column_954 Column_955 Column_956 Column_957 Column_958 Column_959 Column_960 Column_961 Column_962 Column_963 Column_964 Column_965 Column_966 Column_967 Column_968 Column_969 Column_970 Column_971 Column_972 Column_973 Column_974 Column_975 Column_976 Column_977 Column_978 Column_979 Column_980 Column_981 Column_982 Column_983 Column_984 Column_985 Column_986 Column_987 Column_988 Column_989 Column_990 Column_991 Column_992 Column_993 Column_994 Column_995 Column_996 Column_997 Column_998 Column_999 Column_1000 Column_1001 Column_1002 Column_1003 Column_1004 Column_1005 Column_1006 Column_1007 Column_1008 Column_1009 Column_1010 Column_1011 Column_1012 Column_1013 Column_1014 Column_1015 Column_1016 Column_1017 Column_1018 Column_1019 Column_1020 Column_1021 Column_1022 Column_1023 Column_1024 Column_1025 Column_1026 Column_1027 Column_1028 Column_1029 Column_1030 Column_1031 Column_1032 Column_1033 Column_1034 Column_1035 Column_1036 Column_1037 Column_1038 Column_1039 Column_1040 Column_1041 Column_1042 Column_1043 Column_1044 Column_1045 Column_1046 Column_1047 Column_1048 Column_1049 Column_1050 Column_1051 Column_1052 Column_1053 Column_1054 Column_1055 Column_1056 Column_1057 Column_1058 Column_1059 Column_1060 Column_1061 Column_1062 Column_1063 Column_1064 Column_1065 Column_1066 Column_1067 Column_1068 Column_1069 Column_1070 Column_1071 Column_1072 Column_1073 Column_1074 Column_1075 Column_1076 Column_1077 Column_1078 Column_1079 Column_1080 Column_1081 Column_1082 Column_1083 Column_1084 Column_1085 Column_1086 Column_1087 Column_1088 Column_1089 Column_1090 Column_1091 Column_1092 Column_1093 Column_1094 Column_1095 Column_1096 Column_1097 Column_1098 Column_1099 Column_1100 Column_1101 Column_1102 Column_1103 Column_1104 Column_1105 Column_1106 Column_1107 Column_1108 Column_1109 Column_1110 Column_1111 Column_1112 Column_1113 Column_1114 Column_1115 Column_1116 Column_1117 Column_1118 Column_1119 Column_1120 Column_1121 Column_1122 Column_1123 Column_1124 Column_1125 Column_1126 Column_1127 Column_1128 Column_1129 Column_1130 Column_1131 Column_1132 Column_1133 Column_1134 Column_1135 Column_1136 Column_1137 Column_1138 Column_1139 Column_1140 Column_1141 Column_1142 Column_1143 Column_1144 Column_1145 Column_1146 Column_1147 Column_1148 Column_1149 Column_1150 Column_1151 Column_1152 Column_1153 Column_1154 Column_1155 Column_1156 Column_1157 Column_1158 Column_1159 Column_1160 Column_1161 Column_1162 Column_1163 Column_1164 Column_1165 Column_1166 Column_1167 Column_1168 Column_1169 Column_1170 Column_1171 Column_1172 Column_1173 Column_1174 Column_1175 Column_1176 Column_1177 Column_1178 Column_1179 Column_1180 Column_1181 Column_1182 Column_1183 Column_1184 Column_1185 Column_1186 Column_1187 Column_1188 Column_1189 Column_1190 Column_1191 Column_1192 Column_1193 Column_1194 Column_1195 Column_1196 Column_1197 Column_1198 Column_1199 Column_1200 Column_1201 Column_1202 Column_1203 Column_1204 Column_1205 Column_1206 Column_1207 Column_1208 Column_1209 Column_1210 Column_1211 Column_1212 Column_1213 Column_1214 Column_1215 Column_1216 Column_1217 Column_1218 Column_1219 Column_1220 Column_1221 Column_1222 Column_1223 Column_1224 Column_1225 Column_1226 Column_1227 Column_1228 Column_1229 Column_1230 Column_1231 Column_1232 Column_1233 Column_1234 Column_1235 Column_1236 Column_1237 Column_1238 Column_1239 Column_1240 Column_1241 Column_1242 Column_1243 Column_1244 Column_1245 Column_1246 Column_1247 Column_1248 Column_1249 Column_1250 Column_1251 Column_1252 Column_1253 Column_1254 Column_1255 Column_1256 Column_1257 Column_1258 Column_1259 Column_1260 Column_1261 Column_1262 Column_1263 Column_1264 Column_1265 Column_1266 Column_1267 Column_1268 Column_1269 Column_1270 Column_1271 Column_1272 Column_1273 Column_1274 Column_1275 Column_1276 Column_1277 Column_1278 Column_1279 Column_1280 Column_1281 Column_1282 Column_1283 Column_1284 Column_1285 Column_1286 Column_1287 Column_1288 Column_1289 Column_1290 Column_1291 Column_1292 Column_1293 Column_1294 Column_1295 Column_1296 Column_1297 Column_1298 Column_1299 Column_1300 Column_1301 Column_1302 Column_1303 Column_1304 Column_1305 Column_1306 Column_1307 Column_1308 Column_1309 Column_1310 Column_1311 Column_1312 Column_1313 Column_1314 Column_1315 Column_1316 Column_1317 Column_1318 Column_1319 Column_1320 Column_1321 Column_1322 Column_1323 Column_1324 Column_1325 Column_1326 Column_1327 Column_1328 Column_1329 Column_1330 Column_1331 Column_1332 Column_1333 Column_1334 Column_1335 Column_1336 Column_1337 Column_1338 Column_1339 Column_1340 Column_1341 Column_1342 Column_1343 Column_1344 Column_1345 Column_1346 Column_1347 Column_1348 Column_1349 Column_1350 Column_1351 Column_1352 Column_1353 Column_1354 Column_1355 Column_1356 Column_1357 Column_1358 Column_1359 Column_1360 Column_1361 Column_1362 Column_1363 Column_1364 Column_1365 Column_1366 Column_1367 Column_1368 Column_1369 Column_1370 Column_1371 Column_1372 Column_1373 Column_1374 Column_1375 Column_1376 Column_1377 Column_1378 Column_1379 Column_1380 Column_1381 Column_1382 Column_1383 Column_1384 Column_1385 Column_1386 Column_1387 Column_1388 Column_1389 Column_1390 Column_1391 Column_1392 Column_1393 Column_1394 Column_1395 Column_1396 Column_1397 Column_1398 Column_1399 Column_1400 Column_1401 Column_1402 Column_1403 Column_1404 Column_1405 Column_1406 Column_1407 Column_1408 Column_1409 Column_1410 Column_1411 Column_1412 Column_1413 Column_1414 Column_1415 Column_1416 Column_1417 Column_1418 Column_1419 Column_1420 Column_1421 Column_1422 Column_1423 Column_1424 Column_1425 Column_1426 Column_1427 Column_1428 Column_1429 Column_1430 Column_1431 Column_1432 Column_1433 Column_1434 Column_1435 Column_1436 Column_1437 Column_1438 Column_1439 Column_1440 Column_1441 Column_1442 Column_1443 Column_1444 Column_1445 Column_1446 Column_1447 Column_1448 Column_1449 Column_1450 Column_1451 Column_1452 Column_1453 Column_1454 Column_1455 Column_1456 Column_1457 Column_1458 Column_1459 Column_1460 Column_1461 Column_1462 Column_1463 Column_1464 Column_1465 Column_1466 Column_1467 Column_1468 Column_1469 Column_1470 Column_1471 Column_1472 Column_1473 Column_1474 Column_1475 Column_1476 Column_1477 Column_1478 Column_1479 Column_1480 Column_1481 Column_1482 Column_1483 Column_1484 Column_1485 Column_1486 Column_1487 Column_1488 Column_1489 Column_1490 Column_1491 Column_1492 Column_1493 Column_1494 Column_1495 Column_1496 Column_1497 Column_1498 Column_1499 Column_1500 Column_1501 Column_1502 Column_1503 Column_1504 Column_1505 Column_1506 Column_1507 Column_1508 Column_1509 Column_1510 Column_1511 Column_1512 Column_1513 Column_1514 Column_1515 Column_1516 Column_1517 Column_1518 Column_1519 Column_1520 Column_1521 Column_1522 Column_1523 Column_1524 Column_1525 Column_1526 Column_1527 Column_1528 Column_1529 Column_1530 Column_1531 Column_1532 Column_1533 Column_1534 Column_1535 Column_1536 Column_1537 Column_1538 Column_1539 Column_1540 Column_1541 Column_1542 Column_1543 Column_1544 Column_1545 Column_1546 Column_1547 Column_1548 Column_1549 Column_1550 Column_1551 Column_1552 Column_1553 Column_1554 Column_1555 Column_1556 Column_1557 Column_1558 Column_1559 Column_1560 Column_1561 Column_1562 Column_1563 Column_1564 Column_1565 Column_1566 Column_1567 Column_1568 Column_1569 Column_1570 Column_1571 Column_1572 Column_1573 Column_1574 Column_1575 Column_1576 Column_1577 Column_1578 Column_1579 Column_1580 Column_1581 Column_1582 Column_1583 Column_1584 Column_1585 Column_1586 Column_1587 Column_1588 Column_1589 Column_1590 Column_1591 Column_1592 Column_1593 Column_1594 Column_1595 Column_1596 Column_1597 Column_1598 Column_1599 Column_1600 Column_1601 Column_1602 Column_1603 Column_1604 Column_1605 Column_1606 Column_1607 Column_1608 Column_1609 Column_1610 Column_1611 Column_1612 Column_1613 Column_1614 Column_1615 Column_1616 Column_1617 Column_1618 Column_1619 Column_1620 Column_1621 Column_1622 Column_1623 Column_1624 Column_1625 Column_1626 Column_1627 Column_1628 Column_1629 Column_1630 Column_1631 Column_1632 Column_1633 Column_1634 Column_1635 Column_1636 Column_1637 Column_1638 Column_1639 Column_1640 Column_1641 Column_1642 Column_1643 Column_1644 Column_1645 Column_1646 Column_1647 Column_1648 Column_1649 Column_1650 Column_1651 Column_1652 Column_1653 Column_1654 Column_1655 Column_1656 Column_1657 Column_1658 Column_1659 Column_1660 Column_1661 Column_1662 Column_1663 Column_1664 Column_1665 Column_1666 Column_1667 Column_1668 Column_1669 Column_1670 Column_1671 Column_1672 Column_1673 Column_1674 Column_1675 Column_1676 Column_1677 Column_1678 Column_1679 Column_1680 Column_1681 Column_1682 Column_1683 Column_1684 Column_1685 Column_1686 Column_1687 Column_1688 Column_1689 Column_1690 Column_1691 Column_1692 Column_1693 Column_1694 Column_1695 Column_1696 Column_1697 Column_1698 Column_1699 Column_1700 Column_1701 Column_1702 Column_1703 Column_1704 Column_1705 Column_1706 Column_1707 Column_1708 Column_1709 Column_1710 Column_1711 Column_1712 Column_1713 Column_1714 Column_1715 Column_1716 Column_1717 Column_1718 Column_1719 Column_1720 Column_1721 Column_1722 Column_1723 Column_1724 Column_1725 Column_1726 Column_1727 Column_1728 Column_1729 Column_1730 Column_1731 Column_1732 Column_1733 Column_1734 Column_1735 Column_1736 Column_1737 Column_1738 Column_1739 Column_1740 Column_1741 Column_1742 Column_1743 Column_1744 Column_1745 Column_1746 Column_1747 Column_1748 Column_1749 Column_1750 Column_1751 Column_1752 Column_1753 Column_1754 Column_1755 Column_1756 Column_1757 Column_1758 Column_1759 Column_1760 Column_1761 Column_1762 Column_1763 Column_1764 Column_1765 Column_1766 Column_1767 Column_1768 Column_1769 Column_1770 Column_1771 Column_1772 Column_1773 Column_1774 Column_1775 Column_1776 Column_1777 Column_1778 Column_1779 Column_1780 Column_1781 Column_1782 Column_1783 Column_1784 Column_1785 Column_1786 Column_1787 Column_1788 Column_1789 Column_1790 Column_1791 Column_1792 Column_1793 Column_1794 Column_1795 Column_1796 Column_1797 Column_1798 Column_1799 Column_1800 Column_1801 Column_1802 Column_1803 Column_1804 Column_1805 Column_1806 Column_1807 Column_1808 Column_1809 Column_1810 Column_1811 Column_1812 Column_1813 Column_1814 Column_1815 Column_1816 Column_1817 Column_1818 Column_1819 Column_1820 Column_1821 Column_1822 Column_1823 Column_1824 Column_1825 Column_1826 Column_1827 Column_1828 Column_1829 Column_1830 Column_1831 Column_1832 Column_1833 Column_1834 Column_1835 Column_1836 Column_1837 Column_1838 Column_1839 Column_1840 Column_1841 Column_1842 Column_1843 Column_1844 Column_1845 Column_1846 Column_1847 Column_1848 Column_1849 Column_1850 Column_1851 Column_1852 Column_1853 Column_1854 Column_1855 Column_1856 Column_1857 Column_1858 Column_1859 Column_1860 Column_1861 Column_1862 Column_1863 Column_1864 Column_1865 Column_1866 Column_1867 Column_1868 Column_1869 Column_1870 Column_1871 Column_1872 Column_1873 Column_1874 Column_1875 Column_1876 Column_1877 Column_1878 Column_1879 Column_1880 Column_1881 Column_1882 Column_1883 Column_1884 Column_1885 Column_1886 Column_1887 Column_1888 Column_1889 Column_1890 Column_1891 Column_1892 Column_1893 Column_1894 Column_1895 Column_1896 Column_1897 Column_1898 Column_1899 Column_1900 Column_1901 Column_1902 Column_1903 Column_1904 Column_1905 Column_1906 Column_1907 Column_1908 Column_1909 Column_1910 Column_1911 Column_1912 Column_1913 Column_1914 Column_1915 Column_1916 Column_1917 Column_1918 Column_1919 Column_1920 Column_1921 Column_1922 Column_1923 Column_1924 Column_1925 Column_1926 Column_1927 Column_1928 Column_1929 Column_1930 Column_1931 Column_1932 Column_1933 Column_1934 Column_1935 Column_1936 Column_1937 Column_1938 Column_1939 Column_1940 Column_1941 Column_1942 Column_1943 Column_1944 Column_1945 Column_1946 Column_1947 Column_1948 Column_1949 Column_1950 Column_1951 Column_1952 Column_1953 Column_1954 Column_1955 Column_1956 Column_1957 Column_1958 Column_1959 Column_1960 Column_1961 Column_1962 Column_1963 Column_1964 Column_1965 Column_1966 Column_1967 Column_1968 Column_1969 Column_1970 Column_1971 Column_1972 Column_1973 Column_1974 Column_1975 Column_1976 Column_1977 Column_1978 Column_1979 Column_1980 Column_1981 Column_1982 Column_1983 Column_1984 Column_1985 Column_1986 Column_1987 Column_1988 Column_1989 Column_1990 Column_1991 Column_1992 Column_1993 Column_1994 Column_1995 Column_1996 Column_1997 Column_1998 Column_1999 Column_2000 Column_2001 Column_2002 Column_2003 Column_2004 Column_2005 Column_2006 Column_2007 Column_2008 Column_2009 Column_2010 Column_2011 Column_2012 Column_2013 Column_2014 Column_2015 Column_2016 Column_2017 Column_2018 Column_2019 Column_2020 Column_2021 Column_2022 Column_2023 Column_2024 Column_2025 Column_2026 Column_2027 Column_2028 Column_2029 Column_2030 Column_2031 Column_2032 Column_2033 Column_2034 Column_2035 Column_2036 Column_2037 Column_2038 Column_2039 Column_2040 Column_2041 Column_2042 Column_2043 Column_2044 Column_2045 Column_2046 Column_2047 Column_2048 Column_2049 Column_2050 Column_2051 Column_2052 Column_2053 Column_2054 Column_2055 Column_2056 Column_2057 Column_2058 Column_2059 Column_2060 Column_2061 Column_2062 Column_2063 Column_2064 Column_2065 Column_2066 Column_2067 Column_2068 Column_2069 Column_2070 Column_2071 Column_2072 Column_2073 Column_2074 Column_2075 Column_2076 Column_2077 Column_2078 Column_2079 Column_2080 Column_2081 Column_2082 Column_2083 Column_2084 Column_2085 Column_2086 Column_2087 Column_2088 Column_2089 Column_2090 Column_2091 Column_2092 Column_2093 Column_2094 Column_2095 Column_2096 Column_2097 Column_2098 Column_2099 Column_2100 Column_2101 Column_2102 Column_2103 Column_2104 Column_2105 Column_2106 Column_2107 Column_2108 Column_2109 Column_2110 Column_2111 Column_2112 Column_2113 Column_2114 Column_2115 Column_2116 Column_2117 Column_2118 Column_2119 Column_2120 Column_2121 Column_2122 Column_2123 Column_2124 Column_2125 Column_2126 Column_2127 Column_2128 Column_2129 Column_2130 Column_2131 Column_2132 Column_2133 Column_2134 Column_2135 Column_2136 Column_2137 Column_2138 Column_2139
feature_infos=[10211.834999999999:64523.970000000001] [32.552006580412517:66.415414631598964] [10205.999934998055:64453.84806872761] [10220.321568885329:64505.812272480995] [10202.854949081217:64570.806549789726] [20.765400403510931:72.55189202434542] [10222.022500459025:64512.138078659642] [10211.834999999999:64519.244999999995] [10183.899184540836:64880.017770614097] [10183.899184540836:64880.017770614097] [10183.899184540836:64880.017770614097] [10183.899184540836:64880.017770614097] [10183.899184540836:64880.017770614097] [10236.731253638003:64409.278438798116] [10243.310789918263:64381.947547473043] [10218.385:64515.889999999999] [10233.76537686305:64472.777167102489] [-5039.9399999999987:3344.0900000000038] [10196.5525:64545.112500000003] none [10231.76:64854] [10220.642796639848:64564.975641261379] [10211.834999999999:64519.244999999995] none [10239.608045410187:64426.910831313668] [0:44529] [0:100] [2.9265509738149129:96.754238148466541] [-6.2877181714140407e-12:100.0000000000564] [-1212.3456868030003:1163.2489747615032] [1.1444091796875e-05:4337127.4814853668] [-2.0861625671386719e-06:4229403.9905679226] [1.3828277587890625e-05:4299551.0933625698] [9.2629764698224939:47.130858902806146] [-99.999999999999986:0] [0:100] [-89.579357501619484:89.350187621971472] [-2.6226043701171875e-06:5603592.6058249474] [-82.858060883246026:80.92861368902588] [-0.18835603245383453:0.17391282681638473] [-1.5020370483398438e-05:5570405.6726036072] [2.4633299724402016:37.979242305397868] [-77.347322637711528:68.876221443391017] [-5.3644180297851563e-07:5725200.5557727814] [-7049.9200000000055:5770.0699999999997] [-6.198883056640625e-06:5621025.2407774925] [1.6689300537109375e-06:6280342.2259979248] [-7.152557373046875e-06:6304732.3183860779] [-2.8014183044433594e-06:5703770.5131111145] [3.1709671020507813e-05:7158258.0027608871] [-1618.4523093326832:1467.8505517790297] [-1501.096561051716:809.95638719845738] [-99.999999999999986:0] [-1273.9534072437959:752.97370422650579] [6.7013513252127899:92.996707760843321] [-1367.4459480695587:899.96184783892386] [-1367.1024985985787:950.11925742468156] [1.6922992329390976:34.208810128191239] [-89.231136672070349:89.130984333778954] [-1207.0404319816257:798.49439491508019] [-1191.4867689850371:802.71281389011995] [-1288.609312965491:971.34945301890548] [-1190.6293602071735:837.75690458969927] [-0.16678213681839535:0.16988723113428586] [6.597732737660408:5874302.7239603996] [-7562.5299999999988:5573.9300000000003] [6.3366747498512268:6032479.3369498253] [6.783537283539772:6111753.7119028568] [6.8815951347351074:6901288.0765016079] [-4219.7003197978556:1550.0962688582586] [-7675.2099999999991:5505.4800000000032] [13.47651911728226:86.1447815525961] [0:1912.9798568431193] [0:1911.9013126751172] [0:4778.3199999999997] [0:2059.9689503807676] [0:1906.1642925026431] [0.0013260230091797138:1929.1266884052068] [0.77302296992224107:4246.0212749053881] [0.045873102185065094:1.8982223610751841] [0:2056.5514801647741] [0.0033829117335329633:2082.5771249788968] [0.0037186392118476116:2073.5358915057559] [20.094057418356446:79.863416870752275] [0:2367.1908680596389] [0:2370.8701442250044] [0:2392.7391324113837] [0:2388.2567937956578] [1.0451960182275341e-06:1888.9943337230172] [0:2360.1706871757406] [0:92.831023396070904] [0:2510.9226030258437] [0.0012918707573557572:2506.0610978182326] [0.0056311340794290999:2675.492104783882] [0.2035659705953273:1260.7722908501989] [0.30971981061806136:1223.4415243457622] [2.5686052124957639:2423.6960873757253] [0.35035723922389789:6095.0102277265796] [1.4010474057089832:1022.8521847296058] [2.6045224674668814:2472.1961313582824] [2.51727526302771:2456.1106117090544] [2.623279461806368:2627.0302770431877] [0:2321.959644] [1.7156288554111909:772.54844699050125] [1.9525473070767998:626.03894929426463] [-625976.2952029818:-319953.28261899948] [1428466.3369363607:1906581.8523880469] [10211.834999999999:64523.970000000001] [32.428304404169609:67.29972893302056] [10204.959729041973:64453.286194296576] [10221.58032522698:64505.812272480995] [10202.854949081217:64570.806549789726] [20.820144648376562:78.508406681400515] [10223.22820415658:64507.926068992456] [10211.834999999999:64517.324999999997] [10183.899184540836:64899.970861441754] [10183.899184540836:64899.970861441754] [10183.899184540836:64899.970861441754] [10183.899184540836:64899.970861441754] [10183.899184540836:64899.970861441754] [10236.731123913263:64408.113819310107] [10243.34688191177:64382.190444691798] [10218.385:64515.889999999999] [10233.629965909255:64471.504473099129] [-4994.9400000000023:3865.9300000000003] [10196.8025:64561.345000000001] none [10239.889999999999:64854] [10220.649041853198:64565.016177564568] [10211.834999999999:64519.244999999995] none [10239.698308953826:64426.822300000524] [0:33437] [0:100] [3.4677246622738496:99.70097502159922] [-6.9925689642637164e-12:100.00000000006801] [-925.60363005916508:2000.0000000053426] [1.1444091796875e-05:3493684.4319694042] [-2.0861625671386719e-06:3396502.0071501732] [1.3828277587890625e-05:3937965.2590503693] [9.2629764698224939:47.20540076346596] [-99.999999999999986:0] [0:100] [-89.575990738367508:89.350187621971472] [-2.6226043701171875e-06:5603592.6058249474] [-83.228339113075691:97.281015873512544] [-0.16847736548761413:0.16821094900946718] [-1.5020370483398438e-05:5559049.9395537376] [2.4794127171442666:37.979242305397868] [-77.347322637711528:68.66413492211619] [-5.3644180297851563e-07:5725200.5557727814] [-7049.9200000000055:4909] [-6.198883056640625e-06:5621025.2407774925] [1.6689300537109375e-06:6282410.649797678] [-7.152557373046875e-06:6248311.6787748337] [-2.8014183044433594e-06:5703770.5131111145] [3.1709671020507813e-05:7126930.8821361065] [-1251.1599607823616:1467.8505517790297] [-1526.6949474093853:853.48342549325753] [-99.999999999999986:0] [-1264.8365922874914:753.21108788024117] [7.1548981451916989:92.996707760843321] [-1376.1944832416411:948.65052008405473] [-1367.1024985985787:991.30413831410988] [1.8436182342025407:35.067961948620287] [-89.232844181683163:89.132131592934257] [-1207.0404319816257:803.4023046014845] [-1191.4867689850371:794.30579697715086] [-1250.2270762832413:1027.6708767267482] [-1190.6293602071735:836.82682783578593] [-0.16507012161856988:0.1677659765506794] [7.1465583592653275:5871706.3390438557] [-7562.5299999999988:5412.1200000000026] [6.7795668393373489:6082445.3216300011] [7.2777662575244904:6123250.387165308] [7.1386652141809464:6930937.2677195072] [-4019.6559866924217:1550.0962688582586] [-7675.2099999999991:5399.8600000000006] [13.824048463992606:86.1447815525961] [0:2322.866240597381] [0:2324.4215615553235] [0:2852.9700000000012] [0:1847.4358166225895] [0:2317.4184171898719] [0.0014850494458735887:2345.4826675217619] [1.2058700232092119:4246.0212749053881] [0.045873102185065094:1.8984141450414116] [0:1842.9601208789552] [0.0033829117335329633:1869.1400247090651] [0.0037186392118476116:1984.4307140967078] [20.357132183426284:79.863416870752275] [0:2367.1908680596389] [0:2370.8701442250044] [0:2392.7391324113837] [0:2388.2567937956578] [3.9871063927747114e-06:1913.835466978413] [0:2357.7637582153429] [0:92.831023396070904] [0:2499.6623129484578] [0.0012918707573557572:2506.4737480767035] [0.0056311340794290999:2669.631225869241] [0.31755085067017541:1301.8132363002146] [0.46854178236498972:1257.580454383856] [2.6733047636334559:2423.1604030777357] [0.3253317221364766:6095.0102277265796] [1.3980763094671658:1023.6401910995922] [2.6977335408680543:2474.5202337352807] [2.6037601347546109:2466.2614057779847] [2.6718280659842142:2632.6673294815482] [0:2285.737736] [1.6952017078210007:769.67263954065959] [1.9379218340060296:626.03894929426463] [-626057.21768598177:-319953.28261899948] [1428447.8007233606:1906591.7160006459] [10211.834999999999:64523.970000000001] [32.366227779021528:67.875428011906195] [10204.619416713767:64453.242230526725] [10220.137615907814:64505.812272480995] [10202.854949081217:64593.332698385624] [20.491688584145521:71.679067003569969] [10221.534771630348:64511.807612928424] [10211.834999999999:64515.889999999999] [10183.899184540836:65030.755461909474] [10183.899184540836:65030.755461909474] [10183.899184540836:65030.755461909474] [10183.899184540836:65030.755461909474] [10183.899184540836:65030.755461909474] [10236.731253638003:64407.867875391421] [10243.310789918263:64382.134388447652] [10218.385:64515.889999999999] [10233.76537686305:64470.799080538498] [-5039.9399999999987:4399.010000000002] [10198.852500000001:64561.345000000001] none [10239.889999999999:64854] [10220.635701837447:64564.998127854342] [10211.834999999999:64519.244999999995] none [10239.608045410187:64426.910831313668] [0:41399] [0:100] [2.9265509738149129:97.507761027213533] [-1.0440601574574801e-10:100.00000000005885] [-1212.3456868030003:1016.1119788554236] [1.1444091796875e-05:3899864.8774521351] [-2.0861625671386719e-06:3824070.3421671391] [1.3828277587890625e-05:4038433.2270021439] [9.2812197700231707:47.304670398016285] [-99.999999999999986:0] [0:100] [-89.572496645006353:89.350187621971472] [-2.6226043701171875e-06:5603592.6058249474] [-86.371057511713445:85.300555778736978] [-0.16605791577746301:0.17398011895338655] [-1.5020370483398438e-05:5545216.1504061222] [2.4953823014454217:37.950352011243737] [-77.347322637711528:68.843125262423641] [-5.3644180297851563e-07:5725200.5557727814] [-7049.9200000000055:5106.0200000000041] [-6.198883056640625e-06:5621025.2407774925] [1.6689300537109375e-06:6224948.4141395092] [-7.152557373046875e-06:6193348.6648318768] [-2.8014183044433594e-06:5703770.5131111145] [3.1709671020507813e-05:7076750.5237486362] [-1618.4523093326832:1235.5343771272503] [-1526.6949474093853:860.81826225818804] [-99.999999999999986:0] [-1274.178490001726:745.90629968142434] [6.7013513252127899:86.813868287907496] [-1376.1944832416411:990.0508324563707] [-1367.1024985985787:991.30413831410988] [1.8165264825781684:35.928919996651253] [-89.232270724302651:89.132131592934257] [-1203.5935173150308:795.1418804938337] [-1187.5667189168082:815.93074460084904] [-1206.6298695332516:1051.4028083870071] [-1187.4208987744371:856.35487435811467] [-0.16678213681839535:0.17355300837362339] [7.2622491270303726:5874302.7239603996] [-7562.5299999999988:5602.5999999999985] [7.3047845810651779:6092595.2695744038] [7.0462230741977692:6119465.9571876526] [7.1809801012277603:6937300.0202460289] [-4219.7003197978556:1550.0962688582586] [-7675.2099999999991:5590.8799999999974] [13.47651911728226:81.325062786045663] [0:2308.4347161517017] [0:2315.4503442895229] [0:4778.3199999999997] [0:1956.3044900952298] [0:2306.7926015855319] [0.0013260230091797138:2324.6824161928289] [1.1197364501228395:4309.9411341409577] [0.04653497228767673:1.8997355423938316] [0:1955.5230354478413] [0.0033829117335329633:1974.8075545359186] [0.0037186392118476116:2009.5853370788075] [20.094057418356446:76.431465502206464] [0:2367.1908680596389] [0:2370.8701442250044] [0:2392.7391324113837] [0:2388.2567937956578] [3.1896851142197692e-06:1882.9248043373059] [0:2354.8282634634147] [0:92.831023396070904] [0:2488.6439409509503] [0.0012918707573557572:2494.9846520849601] [0.0056311340794290999:2660.2162550718758] [0.29486864705087712:1260.7722908501989] [0.43730566354065709:1222.2244240915986] [2.6948560494079032:2423.6960873757253] [0.30209374198387112:6095.0102277265796] [1.434531799009283:1023.6401910995922] [2.654472277910954:2473.7554360097224] [2.7027364986371087:2468.3183079931978] [2.6797350804189133:2633.8754754631109] [0:2636.7138880000002] [1.7281150126906517:772.66926221498193] [1.9552426156659701:626.03894929426463] [-626012.98490598181:-320039.18592699949] [1428463.7454633606:1906620.1448615887] [10211.834999999999:64523.970000000001] [31.992286751866356:68.191318256428914] [10204.619416713767:64452.709453908094] [10220.137615907814:64505.812272480995] [10202.854949081217:64570.806549789726] [20.491688584145521:71.809215945756065] [10221.445431525164:64515.438089513686] [10211.834999999999:64515.889999999999] [10183.899184540836:65030.755461909474] [10183.899184540836:65030.755461909474] [10183.899184540836:65030.755461909474] [10183.899184540836:65030.755461909474] [10183.899184540836:65030.755461909474] [10236.744455577116:64407.615064589998] [10243.34688191177:64382.190444691798] [10218.385:64515.889999999999] [10233.81538848245:64469.318454947075] [-5960.0400000000009:3518.3899999999994] [10197.0975:64545.112500000003] none [10238.379999999999:64854] [10220.635701837447:64565.016177564568] [10211.834999999999:64519.244999999995] none [10239.698308953826:64426.910831313668] [0:44529] [0:100] [3.4677246622738496:97.757983076591643] [-1.0440601574574801e-10:100.00000000006801] [-856.53184927571408:810.61774579946632] [1.1444091796875e-05:4721648.4172968864] [-2.0861625671386719e-06:4646405.4476463795] [1.3828277587890625e-05:4673698.6817879677] [9.3171407524343159:47.218781752849033] [-99.999999999999986:0] [0:100] [-89.574671114193137:89.348287595187671] [-2.6226043701171875e-06:5603592.6058249474] [-88.153528668240327:89.6330978863366] [-0.16912746778038071:0.17391282681638473] [-1.5020370483398438e-05:5564302.8136324883] [2.5078365838632504:37.969036363341516] [-77.262534660595719:69.549528568624694] [-5.3644180297851563e-07:5725200.5557727814] [-6987.3400000000038:4221.9099999999962] [-6.198883056640625e-06:5621025.2407774925] [1.6689300537109375e-06:6172440.2378749847] [-7.152557373046875e-06:6208162.1478598118] [-2.8014183044433594e-06:5703770.5131111145] [3.1709671020507813e-05:7016889.9101507664] [-1251.1599607823616:979.61291433767394] [-1526.6949474093853:873.93775530048151] [-99.999999999999986:0] [-1273.9534072437959:739.12218606952968] [7.1548981451916989:88.619889483634111] [-1376.1944832416411:990.0508324563707] [-1367.1024985985787:936.89076421534992] [1.7902277664565094:34.507889126153394] [-89.232844181683163:89.132131592934257] [-1188.0327737824559:815.90773703756952] [-1173.5861876608319:823.04851437330888] [-1171.9639113156445:1051.4028083870071] [-1173.0470605532844:878.77220473826503] [-0.16507012161856988:0.16932537604445619] [6.6390886753797531:5874302.7239603996] [-7601.9200000000055:5562.880000000001] [7.0729193091392517:6089347.3479669094] [6.8107848316431046:6123250.387165308] [7.1386652141809464:6930937.2677195072] [-3735.86928841997:1550.0962688582586] [-7974.9300000000003:5505.4800000000032] [13.824048463992606:83.282970540429247] [0:2322.866240597381] [0:2324.4215615553235] [0:2852.9700000000012] [0:2157.3135053040651] [0:2317.4184171898719] [0.0014850494458735887:2345.4826675217619] [1.0397552751140653:4142.7340409835742] [0.045873102185065094:1.8997355423938316] [0:2155.5522372808273] [0.0033829117335329633:2172.9354379035026] [0.0037186392118476116:2161.8738820264166] [19.725407934563719:78.203548548075034] [0:2367.1908680596389] [0:2370.8701442250044] [0:2392.7391324113837] [0:2388.2567937956578] [2.5517480913758155e-06:1816.035417153771] [0:2358.8774477773295] [0:92.831023396070904] [0:2491.6183792587121] [0.0012918707573557572:2484.4396225054425] [0.0056311340794290999:2648.9412809933642] [0.27380660083295733:1259.8549136289678] [0.40815195263794662:1228.3462488021769] [2.5766429080064146:2423.6960873757253] [0.28051561755645177:5700.856210884911] [1.4010474057089832:1023.6401910995922] [2.6097480398772417:2474.5202337352807] [2.6594960630050295:2467.6602983325947] [2.6718280659842142:2632.6673294815482] [0:2636.7138880000002] [1.7572368988579621:773.12310784473232] [1.9925304888398858:625.49275980132199] [-625962.84647798177:-319953.28261899948] [1428462.2208926734:1906581.8523880469] [10211.834999999999:64523.970000000001] [31.931283391600395:68.045756493561854] [10204.619416713767:64452.287004706181] [10220.137615907814:64505.812272480995] [10202.854949081217:64570.806549789726] [20.765400403510931:71.344812451702339] [10221.445431525164:64519.678212770865] [10211.834999999999:64515.889999999999] [10203.228118955547:65030.755461909474] [10203.228118955547:65030.755461909474] [10203.228118955547:65030.755461909474] [10203.228118955547:65030.755461909474] [10203.228118955547:65030.755461909474] [10236.731123913263:64407.867875391421] [10243.310789918263:64382.242196327155] [10218.385:64515.889999999999] [10233.629965909255:64468.779968035502] [-5039.9399999999987:4399.010000000002] [10196.9575:64543.990000000005] none [10231.76:64854] [10220.635701837447:64565.016177564568] [10211.834999999999:64519.244999999995] none [10239.608045410187:64426.822300000524] [0:44529] [0:100] [3.6735084391804249:98.739390698310899] [-6.2090209048579758e-12:100.00000000006801] [-745.16922407958509:810.61774579946632] [1.1444091796875e-05:5328269.2652144432] [-2.0861625671386719e-06:5247125.4950630665] [1.3828277587890625e-05:5265946.8130857944] [9.2997172478071484:47.304670398016285] [-99.999999999999986:0] [0:100] [-89.579363990114686:89.350187621971472] [-2.6226043701171875e-06:5590102.057790041] [-89.223707943308185:93.35674560857656] [-0.16751432078507167:0.17398011895338655] [-1.5020370483398438e-05:5572945.411973238] [2.5153250425665861:37.979242305397868] [-77.014350941120142:68.876221443391017] [-5.3644180297851563e-07:5710125.594373703] [-6105:4909] [-6.198883056640625e-06:5613736.1248521805] [1.6689300537109375e-06:6197524.5289387703] [-7.152557373046875e-06:6304841.6581840515] [-2.8014183044433594e-06:5694809.8979482651] [3.1709671020507813e-05:7104053.9664933681] [-994.90839744272284:1025.8168162094253] [-1526.6949474093853:860.81826225818804] [-99.999999999999986:0] [-1274.178490001726:752.97370422650579] [7.3215900689401412:88.619889483634111] [-1376.1944832416411:936.18029847506841] [-1367.1024985985787:950.11925742468156] [1.7646874196404281:35.067961948620287] [-89.232270724302651:89.132131592934257] [-1169.4146860294434:822.88630742264263] [-1158.3900248234884:823.04851437330888] [-1271.8215898521303:971.34945301890548] [-1150.8164761252219:883.47128916188672] [-0.16678213681839535:0.17355300837362339] [5.5909523516893387:5874302.7239603996] [-6659.6800000000003:5602.5999999999985] [6.797122448682785:6092595.2695744038] [5.8819112628698349:6119465.9571876526] [7.1933120340108871:6937300.0202460289] [-3438.7808186456823:1045.2106470013023] [-6864.0400000000009:5590.8799999999974] [13.949759898224903:83.282970540429247] [0:2308.4347161517017] [0:2315.4503442895229] [0:2852.9700000000012] [0:2291.2715031980028] [0:2306.7926015855319] [0.0013260230091797138:2324.6824161928289] [0.96548704117734629:4246.0212749053881] [0.047505316826256923:1.8997355423938316] [0:2290.6604931903521] [0.0033829117335329633:2308.3044134633637] [0.0037186392118476116:2294.765088867659] [20.451747515154:78.203548548075034] [0:2364.3396663318154] [0:2369.3324217703562] [0:2389.5869087299802] [0:2386.3800824571649] [2.0413984731006524e-06:1888.9943337230172] [0:2360.7086673228523] [0:81.739578962094825] [0:2510.944375764635] [0.0012918707573557572:2489.4827834188309] [0.0056311340794290999:2665.3431235946655] [0.25424898648774608:1247.0911775540774] [0.38094182246208352:1206.7754752416547] [2.3645194758532524:2423.6960873757253] [0.30209374198387112:5318.0725529363208] [1.4042652784314116:1023.6401910995922] [2.4252651943385151:2473.7554360097224] [2.6071291584198097:2468.3183079931978] [2.6820350545827858:2633.8754754631109] [0:2636.7138880000002] [1.7316162838769851:772.66926221498193] [1.9748051839514804:624.11304590783038] [-625976.2952029818:-320073.71344599948] [1428459.1979839907:1906620.1448615887] [10211.834999999999:64523.970000000001] [31.84924470827637:67.239466357576333] [10204.619416713767:64452.768703774185] [10220.137615907814:64505.812272480995] [10202.854949081217:64593.332698385624] [20.786085861127638:70.188171559529437] [10221.445431525164:64520.022199043713] [10211.834999999999:64506.360000000001] [10183.899184540836:65030.755461909474] [10183.899184540836:65030.755461909474] [10183.899184540836:65030.755461909474] [10183.899184540836:65030.755461909474] [10183.899184540836:65030.755461909474] [10236.737063449589:64407.612795619913] [10243.34688191177:64382.134388447652] [10218.385:64515.889999999999] [10233.76537686305:64470.623575640893] [-5039.9600000000064:4399.010000000002] [10196.5525:64568.985000000001] none [10231.76:64854] [10220.635701837447:64564.998127854342] [10211.834999999999:64519.244999999995] none [10239.733426306429:64425.85750198071] [0:44529] [0:100] [3.6550583581271634:98.739390698310899] [-5.6634992732520771e-12:100.0000000000548] [-741.68615812798271:925.57783660593134] [1.1444091796875e-05:5717219.191311121] [-2.0861625671386719e-06:5634367.5183680058] [1.3828277587890625e-05:5646523.8456134796] [9.2848800178979332:47.20540076346596] [-99.999999999999986:0] [0:100] [-89.579357501619484:89.350187621971472] [-2.6226043701171875e-06:5537856.0119900703] [-89.978523624359724:93.35674560857656] [-0.19274851651620117:0.17391282681638473] [-1.5020370483398438e-05:5572945.411973238] [2.5119954250564729:37.979242305397868] [-76.674434487714635:69.549528568624694] [-5.3644180297851563e-07:5652538.8937342167] [-7049.9200000000055:5770.0699999999997] [-6.198883056640625e-06:5572942.7654919624] [1.6689300537109375e-06:6280342.2259979248] [-7.152557373046875e-06:6304732.3183860779] [-2.8014183044433594e-06:5648595.7190995216] [3.1709671020507813e-05:7158258.0027608871] [-832.37064723177104:953.73104188600564] [-1526.6949474093853:873.93775530048151] [-99.999999999999986:0] [-1274.178490001726:753.21108788024117] [7.2916600233456972:88.619889483634111] [-1376.1944832416411:948.65052008405473] [-1359.3105821478894:991.30413831410988] [1.7398727864037362:35.928919996651253] [-89.227592323420666:89.130322166821429] [-1162.625944833158:822.88630742264263] [-1165.0122839830779:821.40876419087385] [-1348.3057268757184:1027.6708767267482] [-1123.5960381560094:883.47128916188672] [-0.1818999505924988:0.16932537604445619] [6.2064702361822128:5874302.7239603996] [-7562.5299999999988:5562.880000000001] [5.8676043301820755:6089347.3479669094] [6.3497113585472107:6089406.0075027943] [6.4630412757396698:6929339.5071249008] [-4019.6559866924217:1550.0962688582586] [-7675.2099999999991:5467.6400000000031] [13.904173502146037:83.282970540429247] [0:1879.8960484583754] [0:1890.1538082997245] [0:2811.1100000000006] [0:2377.3055071875956] [0:1890.197020734365] [0.0013260230091797138:1882.9418314445438] [0.89652368109325009:4142.7340409835742] [0.048427550387770989:1.8997355423938316] [0:2373.6822698853371] [0.0033829117335329633:2391.0707206837528] [0.0037186392118476116:2376.2415377258012] [20.389193909938903:78.203548548075034] [0:2353.2649685044116] [0:2360.708106795917] [0:2377.5068651287247] [0:2376.6774537365227] [1.633118778480522e-06:1913.835466978413] [0:2360.7086673228523] [0:81.10144707605842] [0:2510.9226030258437] [0.0012918707573557572:2506.0610978182326] [0.0056311340794290999:2675.492104783882] [0.23608834459576422:1301.8132363002146] [0.3555457009646113:1257.580454383856] [2.4912788354943758:2423.6960873757253] [0.28051561755645177:6095.0102277265796] [1.3734564358170165:1022.8521847296058] [2.5198633610867098:2467.6721839626093] [2.4223138380858238:2467.6602983325947] [2.5422512219959046:2632.3638629803631] [0:2636.7138880000002] [1.710756012479028:773.12310784473232] [1.9598571321119613:625.18725365313844] [-626057.21768598177:-320039.18592699949] [1428457.6116121158:1906620.1448615887] [10211.834999999999:64523.970000000001] [31.931283391600395:67.37656715083186] [10204.619416713767:64453.30185219035] [10220.321568885329:64505.812272480995] [10202.854949081217:64593.332698385624] [20.491688584145521:70.859784747828414] [10221.445431525164:64522.845928137664] [10211.834999999999:64519.244999999995] [10203.228118955547:64899.970861441754] [10203.228118955547:64899.970861441754] [10203.228118955547:64899.970861441754] [10203.228118955547:64899.970861441754] [10203.228118955547:64899.970861441754] [10236.731123913263:64410.577741520472] [10243.384936642226:64382.242196327155] [10218.385:64515.889999999999] [10233.629965909255:64473.678212505125] [-5960.0400000000009:4399.010000000002] [10196.8025:64568.985000000001] none [10231.76:64854] [10220.635701837447:64565.016177564568] [10211.834999999999:64519.244999999995] none [10239.698308953826:64425.764585481622] [0:44529] [0:100] [3.8073588690908085:97.507761027213533] [-1.0440601574574801e-10:100.00000000006801] [-745.16922407958509:925.57783660593134] [1.1444091796875e-05:5889972.6435084343] [-2.0861625671386719e-06:5795461.3225364685] [1.3828277587890625e-05:5806493.8446176052] [9.2629764698224939:47.304670398016285] [-99.999999999999986:0] [0:100] [-89.575990738367508:89.348287595187671] [-2.6226043701171875e-06:5424762.4563281536] [-90.203350797630222:85.300555778736978] [-0.2237951237902501:0.17391282681638473] [-1.5020370483398438e-05:5570405.6726036072] [2.4890815367573738:37.979242305397868] [-75.984319323996871:68.876221443391017] [-5.3644180297851563e-07:5561388.8339474201] [-7628.9499999999971:4762.4599999999991] [-6.198883056640625e-06:5452067.5498180389] [1.6689300537109375e-06:6282410.649797678] [-7.152557373046875e-06:6248311.6787748337] [-2.8014183044433594e-06:5547053.2272806168] [3.1709671020507813e-05:7126930.8821361065] [-1014.1980300820042:953.73104188600564] [-1492.0302649555961:860.81826225818804] [-99.999999999999986:0] [-1274.178490001726:752.97370422650579] [7.4068681330975394:86.714569136246638] [-1397.0050612161795:990.0508324563707] [-1391.6654864310694:936.89076421534992] [1.7157530765509392:35.067961948620287] [-89.224184902488574:89.126011863554723] [-1169.4146860294434:820.88421645338508] [-1165.0122839830779:815.93074460084904] [-1392.2751706762429:1051.4028083870071] [-1090.1614333749899:873.81069753092106] [-0.21054405345671867:0.17038364494449548] [5.5909523516893387:5874302.7239603996] [-8678.7099999999991:5581.3300000000017] [6.3366747498512268:6060142.1203093529] [5.8819112628698349:6062681.9561853409] [6.8815951347351074:6887221.6673862934] [-3735.86928841997:1063.3438057298918] [-8027.7900000000009:5505.4800000000032] [13.98827514393402:80.701631195542916] [0:1489.9809479070623] [0:1799.0763943987602] [0:3954.5600000000049] [0:2414.1480456593254] [0:1640.2907231142408] [0.0014850494458735887:1621.9457261651314] [0.83248627530087504:4309.9411341409577] [0.048170039825466478:1.8984141450414116] [0:2407.37643972364] [0.0033829117335329633:2426.9265838727865] [0.0037186392118476116:2409.6667497016274] [19.725407934563719:76.431465502206464] [0:2329.1119458557919] [0:2334.9662845141979] [0:2358.2597045167481] [0:2355.2182971607149] [1.3064950227844176e-06:1888.9943337230172] [0:2360.1706871757406] [0:81.739578962094825] [0:2499.6623129484578] [0.0012918707573557572:2506.4737480767035] [0.0056311340794290999:2669.631225869241] [0.21922489141035248:1260.7722908501989] [0.33184265423363718:1222.2244240915986] [2.3645194758532524:2423.6960873757253] [0.43758773984086291:5700.856210884911] [1.3416745546231184:1023.6401910995922] [2.4252651943385151:2462.2513998747854] [2.51727526302771:2461.7355910636206] [2.623279461806368:2624.3516661046579] [0:2636.7138880000002] [1.6892434122710456:773.12310784473232] [1.9444585607908424:626.03894929426463] [-626012.98490598181:-319953.28261899948] [1428467.7575151958:1906591.7160006459] [10211.834999999999:64523.970000000001] [31.84924470827637:67.875428011906195] [10204.959729041973:64454.036888613868] [10220.321568885329:64505.812272480995] [10202.854949081217:64570.806549789726] [20.765400403510931:71.679067003569969] [10221.445431525164:64522.845928137664] [10211.834999999999:64517.324999999997] [10209.797543049734:64899.970861441754] [10209.797543049734:64899.970861441754] [10209.797543049734:64899.970861441754] [10209.797543049734:64899.970861441754] [10209.797543049734:64899.970861441754] [10236.731253638003:64410.704647282633] [10243.310789918263:64382.242196327155] [10218.385:64515.889999999999] [10233.76537686305:64474.282533406593] [-5960.0400000000009:4399.010000000002] [10197.0975:64568.985000000001] none [10231.76:64854] [10220.642796639848:64565.016177564568] [10211.834999999999:64519.244999999995] none [10239.608045410187:64426.910831313668] [0:41646] [0:100] [3.7792718974531887:97.757983076591643] [-1.4600723277888494e-11:100.00000000005885] [-821.1511312910369:844.44208146454275] [1.1444091796875e-05:5839488.4165728092] [-2.0861625671386719e-06:5713947.7090609074] [1.3828277587890625e-05:5767611.1822955608] [9.2812197700231707:47.378680974436719] [-99.999999999999986:0] [0:100] [-89.572496645006353:89.348160825152718] [-2.6226043701171875e-06:5245292.0726947784] [-89.978523624359724:89.6330978863366] [-0.19274851651620117:0.17391282681638473] [-1.5020370483398438e-05:5559049.9395537376] [2.48126693021758:37.979242305397868] [-74.912617890843435:69.549528568624694] [-5.3644180297851563e-07:5392024.8846311569] [-6987.3400000000038:4880.7300000000032] [-6.198883056640625e-06:5265308.1859688759] [1.6689300537109375e-06:6224948.4141395092] [-7.152557373046875e-06:6193348.6648318768] [-2.8014183044433594e-06:5368536.2755048275] [3.1709671020507813e-05:7076750.5237486362] [-994.90839744272284:953.73104188600564] [-1501.096561051716:873.93775530048151] [-99.999999999999986:0] [-1274.178490001726:753.21108788024117] [7.3653210729567489:86.78838940641316] [-1413.2391511781534:936.18029847506841] [-1393.0404233151785:950.11925742468156] [1.6922992329390976:35.928919996651253] [-89.231136672070349:89.123241263670408] [-1169.4146860294434:815.90773703756952] [-1165.0122839830779:823.04851437330888] [-1392.5812001988597:971.34945301890548] [-1049.8275205673974:878.77220473826503] [-0.1818999505924988:0.16721530936559148] [6.2064702361822128:5871706.3390438557] [-7601.9200000000055:5289.0799999999981] [5.8676043301820755:6032479.3369498253] [6.3497113585472107:6111753.7119028568] [6.4630412757396698:6901288.0765016079] [-3735.86928841997:1063.3438057298918] [-7974.9300000000003:5505.4800000000032] [13.927565465356107:80.701631195542916] [0:1531.9677613858253] [0:1688.7971577841627] [0:2852.9700000000012] [0:2394.165086159122] [0:1640.2907231142408] [0.0014850494458735887:1640.9399853305597] [0.77302296992224107:4002.0881959880321] [0.04653497228767673:1.8967968149809415] [0:2390.3865187581919] [0.0033829117335329633:2416.5033450365445] [0.0037186392118476116:2401.5851395058976] [19.725407934563719:76.477115348306398] [0:2290.2602630912447] [0:2294.6259359575092] [0:2322.0734020765058] [0:2317.0102018560096] [1.0451960182275341e-06:1913.835466978413] [0:2357.7637582153429] [0:83.69959658113909] [0:2488.6439409509503] [0.0012918707573557572:2494.9846520849601] [0.0056311340794290999:2660.2162550718758] [0.2035659705953273:1301.8132363002146] [0.30971981061806136:1257.580454383856] [2.4912788354943758:2423.1604030777357] [0.4063314727093727:5700.856210884911] [1.3006187361356398:1022.8521847296058] [2.5198633610867098:2472.1961313582824] [2.4223138380858238:2456.1106117090544] [2.5422512219959046:2627.0302770431877] [0:2636.7138880000002] [1.6629226887331743:773.12310784473232] [1.9261139751829217:625.87148111660701] [-626057.21768598177:-319953.28261899948] [1428475.7284075161:1906620.1448615887] [10211.834999999999:64523.970000000001] [31.954293508800806:68.191318256428914] [10204.619416713767:64454.036888613868] [10220.137615907814:64505.812272480995] [10202.854949081217:64570.086925083167] [20.786085861127638:78.508406681400515] [10221.534771630348:64522.845928137664] [10211.834999999999:64519.244999999995] [10210.081511448574:64899.970861441754] [10210.081511448574:64899.970861441754] [10210.081511448574:64899.970861441754] [10210.081511448574:64899.970861441754] [10210.081511448574:64899.970861441754] [10236.744455577116:64410.704647282633] [10243.34688191177:64382.190444691798] [10218.385:64515.889999999999] [10233.902905490491:64474.282533406593] [-5960.0400000000009:3693.4499999999971] [10196.9575:64568.985000000001] none [10231.76:64854] [10220.649041853198:64564.998127854342] [10211.834999999999:64519.244999999995] none [10239.698308953826:64426.910831313668] [0:42282] [0:100] [4.6789095686762643:99.70097502159922] [-1.4600723277888494e-11:100.00000000006801] [-925.60363005916508:2000.0000000053426] [1.1444091796875e-05:5889972.6435084343] [-2.0861625671386719e-06:5795461.3225364685] [1.3828277587890625e-05:5806493.8446176052] [9.2848800178979332:47.378680974436719] [-99.999999999999986:0] [0:100] [-89.562114171543527:89.350187621971472] [-2.6226043701171875e-06:5031278.1351253986] [-90.203350797630222:97.281015873512544] [-0.2237951237902501:0.17391282681638473] [-1.5020370483398438e-05:5545216.1504061222] [2.4735304697431841:37.950352011243737] [-74.104464315424266:69.549528568624694] [-5.3644180297851563e-07:5157403.6174595356] [-7628.9499999999971:4762.4599999999991] [-6.198883056640625e-06:5033735.4277846813] [1.6689300537109375e-06:6172440.2378749847] [-7.152557373046875e-06:6059183.1249608994] [-2.8014183044433594e-06:5195857.7576951981] [3.1709671020507813e-05:6965754.6450302601] [-994.90839744272284:940.44773849245735] [-1526.6949474093853:873.93775530048151] [-99.999999999999986:0] [-1274.178490001726:752.97370422650579] [8.0027592204922176:92.090026716807543] [-1397.0050612161795:948.65052008405473] [-1391.6654864310694:991.30413831410988] [1.7398727864037362:35.928919996651253] [-89.232844181683163:89.120785564429752] [-1169.4146860294434:822.88630742264263] [-1165.0122839830779:821.40876419087385] [-1392.2751706762429:1027.6708767267482] [-1107.7748925380354:883.47128916188672] [-0.21054405345671867:0.20881033852695929] [6.597732737660408:5874302.7239603996] [-8678.7099999999991:5412.1200000000026] [6.3366747498512268:6082445.3216300011] [6.783537283539772:6123250.387165308] [6.8815951347351074:6930937.2677195072] [-4019.6559866924217:1063.3438057298918] [-8027.7900000000009:6285.4000000000015] [14.378806502895758:87.240218777969801] [0:1326.7095689185655] [0:1867.9709550767468] [0:2405.6100000000006] [0:2414.1480456593254] [0:1640.2907231142408] [0.0014850494458735887:1640.9399853305597] [0.89652368109325009:3808.1246228485788] [0.045873102185065094:1.8976840568194915] [0:2407.37643972364] [0.0033829117335329633:2426.9265838727865] [0.0037186392118476116:2409.6667497016274] [19.725407934563719:83.32838794961468] [0:2243.0510772439843] [0:2243.5987671115977] [0:2270.9917695710692] [0:2279.4424225444254] [1.633118778480522e-06:1888.9943337230172] [0:2354.8282634634147] [0:83.69959658113909] [0:2461.5408030258] [0.0012918707573557572:2484.4396225054425] [0.0056311340794290999:2639.2716125912962] [0.23608834459576422:1260.7722908501989] [0.3555457009646113:1240.1580893893779] [2.5686052124957639:2423.6960873757253] [0.37730779608727466:6095.0102277265796] [1.3362647782644785:1008.7571119052857] [2.6045224674668814:2474.5202337352807] [2.51727526302771:2466.2614057779847] [2.623279461806368:2632.6673294815482] [0:2636.7138880000002] [1.6747073105876347:773.12310784473232] [1.9305528354311006:625.87148111660701] [-626012.98490598181:-320073.71344599948] [1428475.7284075161:1906581.8523880469] [10211.834999999999:64523.970000000001] [32.830719733709522:68.045756493561854] [10205.124358606656:64454.036888613868] [10220.137615907814:64505.812272480995] [10202.854949081217:64593.332698385624] [20.491688584145521:71.679067003569969] [10221.445431525164:64520.862965032007] [10211.834999999999:64517.324999999997] [10208.343742021587:64899.970861441754] [10208.343742021587:64899.970861441754] [10208.343742021587:64899.970861441754] [10208.343742021587:64899.970861441754] [10208.343742021587:64899.970861441754] [10236.731253638003:64410.704647282633] [10243.310789918263:64382.190444691798] [10218.385:64515.889999999999] [10233.943465966213:64474.282533406593] [-5960.0400000000009:4399.010000000002] [10196.5525:64558.307500000003] none [10236.719999999999:64854] [10220.635701837447:64564.925154252618] [10211.834999999999:64519.244999999995] none [10239.608045410187:64426.910831313668] [0:42282] [0:100] [6.5228610168849137:98.739390698310899] [-6.9925689642637164e-12:100.00000000005885] [-863.80526778349315:1016.1119788554236] [1.1444091796875e-05:5839488.4165728092] [-2.0861625671386719e-06:5713947.7090609074] [1.3828277587890625e-05:5767611.1822955608] [9.2629764698224939:47.304670398016285] [-99.999999999999986:0] [0:100] [-89.566990854018599:89.350187621971472] [-2.6226043701171875e-06:5243780.1957297325] [-88.601042714814156:93.35674560857656] [-0.19274851651620117:0.17398011895338655] [-1.5020370483398438e-05:5520930.0576117039] [2.4554972334822458:37.969036363341516] [-75.613149469616246:69.549528568624694] [-5.3644180297851563e-07:5366710.7257928848] [-6987.3400000000038:4909] [-6.198883056640625e-06:5250305.5686366558] [1.6689300537109375e-06:6040479.864834547] [-7.152557373046875e-06:6052112.9816873074] [-2.8014183044433594e-06:5325547.0955517292] [3.1709671020507813e-05:6792810.1682519913] [-952.46630310359956:990.91064107107036] [-1492.0302649555961:873.93775530048151] [-99.999999999999986:0] [-1273.9534072437959:753.21108788024117] [11.513066154164155:92.403250545109287] [-1413.2391511781534:990.0508324563707] [-1393.0404233151785:936.89076421534992] [1.7157530765509392:35.067961948620287] [-89.232270724302651:89.126278220684512] [-1169.4146860294434:820.88421645338508] [-1165.0122839830779:815.93074460084904] [-1392.5812001988597:1051.4028083870071] [-1153.36498162626:873.81069753092106] [-0.1818999505924988:0.17355300837362339] [6.6390886753797531:5874302.7239603996] [-7601.9200000000055:5602.5999999999985] [6.7795668393373489:6092595.2695744038] [6.8107848316431046:6119465.9571876526] [7.3396975994110107:6937300.0202460289] [-3735.86928841997:2007.0690935912644] [-7974.9300000000003:5590.8799999999974] [16.304435906037977:87.642281155764096] [0:1489.9809479070623] [0:1799.0763943987602] [0:3954.5600000000049] [0:2394.165086159122] [0:1640.2907231142408] [0.0013260230091797138:1640.9399853305597] [0.83248627530087504:4309.9411341409577] [0.047505316826256923:1.8984141450414116] [0:2390.3865187581919] [0.0033829117335329633:2416.5033450365445] [0.0037186392118476116:2401.5851395058976] [19.725407934563719:83.766133716912478] [0:2289.9301726755189] [0:2291.3545270509003] [0:2316.6162232430484] [0:2307.7146911071413] [1.3064950227844176e-06:1913.835466978413] [0:2349.6659459616176] [0:81.60585107402575] [0:2460.1042623611111] [0.0012918707573557572:2457.7387706659442] [0.0056311340794290999:2606.3020101768698] [0.21922489141035248:1301.8132363002146] [0.33184265423363718:1257.580454383856] [2.5766429080064146:2423.6960873757253] [0.35035723922389789:5700.856210884911] [1.3416745546231184:1006.7808748417762] [2.6097480398772417:2473.7554360097224] [2.6037601347546109:2468.3183079931978] [2.7091876272069109:2633.8754754631109] [0:2559.2543839999998] [1.6892434122710456:772.66926221498193] [1.9444585607908424:626.03894929426463] [-625962.84647798177:-320137.9786759995] [1428475.7284075161:1906591.7160006459] [10211.834999999999:64523.970000000001] [32.792997998911979:68.191318256428914] [10205.999934998055:64453.849281133378] [10220.137615907814:64505.812272480995] [10202.854949081217:64593.332698385624] [20.491688584145521:71.809215945756065] [10222.022500459025:64519.678212770865] [10211.834999999999:64519.244999999995] [10183.899184540836:65030.755461909474] [10183.899184540836:65030.755461909474] [10183.899184540836:65030.755461909474] [10183.899184540836:65030.755461909474] [10183.899184540836:65030.755461909474] [10236.795702293877:64410.704647282633] [10243.34688191177:64382.190444691798] [10218.385:64515.889999999999] [10233.954893176769:64473.421138868674] [-4925.3399999999965:3804.6300000000047] [10196.5525:64568.985000000001] none [10231.76:64854] [10220.642796639848:64564.873998099472] [10211.834999999999:64519.244999999995] none [10239.788876194143:64426.822300000524] [0:41646] [0:100] [5.8755156171231242:97.757983076591643] [-1.0440601574574801e-10:100.00000000005885] [-821.1511312910369:810.61774579946632] [1.1444091796875e-05:5561314.8211328983] [-2.0861625671386719e-06:5408425.688555479] [1.3828277587890625e-05:5478682.4280445576] [9.2812197700231707:47.378680974436719] [-99.999999999999986:0] [0:100] [-89.574671114193137:89.348287595187671] [-2.6226043701171875e-06:5407691.2536709309] [-86.797612178039458:89.6330978863366] [-0.2237951237902501:0.17391282681638473] [-1.5020370483398438e-05:5481650.2236604691] [2.4554972334822458:37.979242305397868] [-76.648136814420496:68.876221443391017] [-5.3644180297851563e-07:5532708.2643792629] [-7628.9499999999971:5770.0699999999997] [-6.198883056640625e-06:5417900.7441823483] [1.6689300537109375e-06:6040415.4793782234] [-7.152557373046875e-06:6208162.1478598118] [-2.8014183044433594e-06:5492290.995531559] [3.1709671020507813e-05:7016889.9101507664] [-994.90839744272284:865.65946453220033] [-1501.096561051716:809.95638719845738] [-99.999999999999986:0] [-1264.8365922874914:753.21108788024117] [12.487678249458083:92.090026716807543] [-1394.7831344682709:936.18029847506841] [-1373.257591263522:950.11925742468156] [1.6922992329390976:35.928919996651253] [-89.232844181683163:89.130984333778954] [-1194.8404087028944:815.90773703756952] [-1181.5818352213494:823.04851437330888] [-1372.7255686259959:971.34945301890548] [-1180.4138478941063:878.77220473826503] [-0.21054405345671867:0.16932537604445619] [5.5909523516893387:5870041.9583678246] [-8678.7099999999991:5573.9300000000003] [6.797122448682785:6089347.3479669094] [5.8819112628698349:6123250.387165308] [7.1933120340108871:6930937.2677195072] [-3438.7808186456823:1550.0962688582586] [-8027.7900000000009:5505.4800000000032] [17.648621911429917:87.240218777969801] [0:1531.9677613858253] [0:1574.9656569403728] [0:3954.5600000000049] [0:2331.1331738365448] [0:1377.75501178935] [0.0014850494458735887:1640.9399853305597] [0.77302296992224107:4309.9411341409577] [0.048427550387770989:1.8997355423938316] [0:2325.602220620603] [0.0033829117335329633:2358.2440122118192] [0.0037186392118476116:2340.6585458038421] [23.126680001544337:83.32838794961468] [0:2325.4443131734915] [0:2327.6384479085982] [0:2352.1709683565227] [0:2343.563738312137] [1.0451960182275341e-06:1913.835466978413] [0:2341.2924259178881] [0:81.739578962094825] [0:2491.6183792587121] [0.0012918707573557572:2457.7256721160365] [0.0056311340794290999:2648.9412809933642] [0.2035659705953273:1301.8132363002146] [0.30971981061806136:1257.580454383856] [2.3645194758532524:2422.8169469375571] [0.3253317221364766:5318.0725529363208] [1.3006187361356398:999.88484568038371] [2.4252651943385151:2474.5202337352807] [2.6071291584198097:2467.6602983325947] [2.6820350545827858:2632.6673294815482] [0:2559.2543839999998] [1.6629226887331743:773.12310784473232] [1.9261139751829217:625.49275980132199] [-625976.2952029818:-320039.18592699949] [1428486.1272024813:1906532.4714034605] [10211.834999999999:64523.970000000001] [32.518825141964214:68.045756493561854] [10206.073720716051:64453.84806872761] [10220.137615907814:64505.812272480995] [10202.854949081217:64593.332698385624] [20.491688584145521:78.508406681400515] [10225.079113332637:64520.022199043713] [10211.834999999999:64519.244999999995] [10203.228118955547:64856.265614176511] [10203.228118955547:64856.265614176511] [10203.228118955547:64856.265614176511] [10203.228118955547:64856.265614176511] [10203.228118955547:64856.265614176511] [10236.818750768789:64410.704647282633] [10243.457857528207:64382.242196327155] [10218.385:64515.889999999999] [10233.81538848245:64472.777167102489] [-4925.3399999999965:3865.9300000000003] [10196.5525:64558.307500000003] none [10237.43:64854] [10220.635701837447:64564.975641261379] [10211.834999999999:64519.244999999995] none [10240.007905494529:64425.85750198071] [0:33437] [0:100] [7.2164608933705745:99.70097502159922] [-1.0440601574574801e-10:100.00000000006801] [-821.1511312910369:2000.0000000053426] [1.1444091796875e-05:5056952.4155220985] [-2.0861625671386719e-06:4883628.2446305752] [1.3828277587890625e-05:4971224.255603075] [9.3171407524343159:47.218781752849033] [-99.999999999999986:0] [0:100] [-89.579363990114686:89.348160825152718] [-2.6226043701171875e-06:5514642.8736553192] [-84.665260394768083:97.281015873512544] [-0.18835603245383453:0.17333322981366464] [-1.5020370483398438e-05:5512038.4128777981] [2.4580821117362164:37.950352011243737] [-77.180135571969643:67.810122766632588] [-5.3644180297851563e-07:5651448.6074874401] [-7049.9200000000055:4880.7300000000032] [-6.198883056640625e-06:5525968.4906253815] [1.6689300537109375e-06:6197524.5289387703] [-7.152557373046875e-06:6304841.6581840515] [-2.8014183044433594e-06:5611215.2000854015] [3.1709671020507813e-05:7104053.9664933681] [-1014.1980300820042:1025.8168162094253] [-1526.6949474093853:853.48342549325753] [-99.999999999999986:0] [-1274.178490001726:753.21108788024117] [14.099895879729793:92.403250545109287] [-1376.1944832416411:948.65052008405473] [-1359.3105821478894:991.30413831410988] [1.6922992329390976:35.928919996651253] [-89.232844181683163:89.132131592934257] [-1207.0404319816257:822.88630742264263] [-1191.4867689850371:821.40876419087385] [-1335.7253379791582:1027.6708767267482] [-1190.6293602071735:883.47128916188672] [-0.16449810317230931:0.17038364494449548] [5.5909523516893387:5866946.3129916191] [-7562.5299999999988:5581.3300000000017] [5.8676043301820755:6092595.2695744038] [5.8819112628698349:6123250.387165308] [6.4630412757396698:6937300.0202460289] [-4019.6559866924217:2007.0690935912644] [-7675.2099999999991:5500.1800000000003] [18.652916625537927:87.642281155764096] [0:1531.9677613858253] [0:1867.9709550767468] [0:3954.5600000000049] [0:2221.1721313558528] [0:1618.8825903034096] [0.0014850494458735887:1372.0108400741524] [0.77302296992224107:4309.9411341409577] [0.050651959323830965:1.8984141450414116] [0:2209.8932654385312] [0.0033829117335329633:2248.7668655336638] [0.0037186392118476116:2229.6242408986936] [23.864789128213371:83.766133716912478] [0:2348.3276759548098] [0:2350.7378608907848] [0:2377.27756214697] [0:2368.8003715141135] [1.0451960182275341e-06:1882.9248043373059] [0:2347.7730752519074] [0:81.10144707605842] [0:2510.944375764635] [0.0012918707573557572:2489.4827834188309] [0.0056311340794290999:2665.3431235946655] [0.2035659705953273:1260.7722908501989] [0.30971981061806136:1228.3462488021769] [2.3645194758532524:2422.1780101783643] [0.30209374198387112:6095.0102277265796] [1.3362647782644785:1023.6401910995922] [2.4252651943385151:2474.5202337352807] [2.4223138380858238:2468.3183079931978] [2.5422512219959046:2633.8754754631109] [0:2413.862455] [1.6747073105876347:770.97338938065343] [1.9305528354311006:625.18725365313844] [-625956.53637698176:-319953.28261899948] [1428475.7284075161:1906540.1754940869] [10211.834999999999:64523.970000000001] [32.518825141964214:68.191318256428914] [10204.959729041973:64453.30185219035] [10220.137615907814:64505.812272480995] [10202.854949081217:64593.332698385624] [20.765400403510931:78.508406681400515] [10223.22820415658:64522.845928137664] [10211.834999999999:64517.324999999997] [10209.797543049734:64872.764151659947] [10209.797543049734:64872.764151659947] [10209.797543049734:64872.764151659947] [10209.797543049734:64872.764151659947] [10209.797543049734:64872.764151659947] [10236.731123913263:64410.704647282633] [10243.495818916514:64382.242196327155] [10218.385:64515.889999999999] [10233.629965909255:64473.678212505125] [-5010.7900000000009:3597.3399999999965] [10196.5525:64568.985000000001] none [10236.719999999999:64854] [10220.642796639848:64565.016177564568] [10211.834999999999:64519.244999999995] none [10239.773293504539:64426.910831313668] [0:44529] [0:100] [2.9265509738149129:99.70097502159922] [-1.0440601574574801e-10:100.00000000006801] [-1212.3456868030003:2000.0000000053426] [1.1444091796875e-05:4337127.4814853668] [-2.0861625671386719e-06:4229403.9905679226] [1.3828277587890625e-05:4299551.0933625698] [9.2997172478071484:47.378680974436719] [-99.999999999999986:0] [0:100] [-89.579357501619484:89.347969012823171] [-2.6226043701171875e-06:5585920.6458892822] [-82.858060883246026:97.281015873512544] [-0.16912746778038071:0.17391282681638473] [-1.5020370483398438e-05:5542908.9631323814] [2.4633299724402016:37.921750620031148] [-77.347322637711528:68.843125262423641] [-5.3644180297851563e-07:5712474.3781468868] [-7049.9200000000055:5770.0699999999997] [-6.198883056640625e-06:5587199.629144907] [1.6689300537109375e-06:6280342.2259979248] [-7.152557373046875e-06:6304732.3183860779] [-2.8014183044433594e-06:5679653.7840385437] [3.1709671020507813e-05:7158258.0027608871] [-1618.4523093326832:990.91064107107036] [-1492.0302649555961:860.81826225818804] [-99.999999999999986:0] [-1273.9534072437959:745.90629968142434] [6.7013513252127899:92.403250545109287] [-1367.4459480695587:990.0508324563707] [-1313.7308119127556:991.30413831410988] [1.7398727864037362:35.067961948620287] [-89.232844181683163:89.130984333778954] [-1203.5935173150308:820.88421645338508] [-1187.5667189168082:815.93074460084904] [-1288.609312965491:1051.4028083870071] [-1187.4208987744371:873.81069753092106] [-0.1535824754970582:0.1677659765506794] [6.2064702361822128:5859895.2878389359] [-7562.5299999999988:5412.1200000000026] [5.8676043301820755:6092595.2695744038] [6.3497113585472107:6123250.387165308] [6.4630412757396698:6937300.0202460289] [-4219.7003197978556:2007.0690935912644] [-7675.2099999999991:5505.4800000000032] [13.47651911728226:87.642281155764096] [0:1912.9798568431193] [0:1911.9013126751172] [0:4778.3199999999997] [0:2059.9689503807676] [0:1906.1642925026431] [0.0014850494458735887:1929.1266884052068] [0.89652368109325009:4309.9411341409577] [0.049721961228632913:1.8966383126542321] [0:2056.5514801647741] [0.0033829117335329633:2082.5771249788968] [0.0037186392118476116:2073.5358915057559] [20.094057418356446:83.766133716912478] [0:2363.4552345854327] [0:2363.7257939839187] [0:2390.0783205047669] [0:2383.2024219605314] [1.633118778480522e-06:1888.9943337230172] [0:2354.3383280939852] [0:81.739578962094825] [0:2510.9226030258437] [0.0012918707573557572:2506.0610978182326] [0.0056311340794290999:2675.492104783882] [0.23608834459576422:1260.5496087639854] [0.3555457009646113:1240.1580893893779] [2.4912788354943758:2420.7220591879059] [0.28051561755645177:6095.0102277265796] [1.3416745546231184:1022.8521847296058] [2.5198633610867098:2474.5202337352807] [2.4223138380858238:2468.3183079931978] [2.5422512219959046:2633.8754754631109] [0:2559.2543839999998] [1.6892434122710456:772.54844699050125] [1.9444585607908424:625.87148111660701] [-625932.07784298179:-320073.71344599948] [1428487.2126932603:1906620.1448615887] [10211.834999999999:64523.970000000001] [32.428304404169609:68.191318256428914] [10204.619416713767:64454.036888613868] [10220.137615907814:64505.812272480995] [10202.854949081217:64570.806549789726] [20.733612838002998:71.809215945756065] [10221.534771630348:64522.845928137664] [10211.834999999999:64515.889999999999] [10210.081511448574:64880.017770614097] [10210.081511448574:64880.017770614097] [10210.081511448574:64880.017770614097] [10210.081511448574:64880.017770614097] [10210.081511448574:64880.017770614097] [10236.737063449589:64410.704647282633] [10243.443100225377:64382.242196327155] [10218.385:64515.889999999999] [10233.76537686305:64474.282533406593] [-5010.7900000000009:3693.4499999999971] [10196.8025:64558.307500000003] none [10239.889999999999:64854] [10220.649041853198:64564.998127854342] [10211.834999999999:64519.244999999995] none [10239.733426306429:64426.822300000524] [0:44529] [0:100] [2.9265509738149129:93.966195643314308] [-6.2651103867500735e-12:100.00000000006801] [-1212.3456868030003:1016.1119788554236] [1.1444091796875e-05:3493684.4319694042] [-2.0861625671386719e-06:3396502.0071501732] [1.3828277587890625e-05:3907535.8865747452] [9.2848800178979332:47.218781752849033] [-99.999999999999986:0] [0:100] [-89.579363990114686:89.346886733513088] [-2.6226043701171875e-06:5603592.6058249474] [-83.228339113075691:80.962839899458785] [-0.19274851651620117:0.17398011895338655] [-1.5020370483398438e-05:5564302.8136324883] [2.4554972334822458:37.969036363341516] [-77.262534660595719:69.549528568624694] [-5.3644180297851563e-07:5725200.5557727814] [-6474.3400000000001:4762.4599999999991] [-6.198883056640625e-06:5621025.2407774925] [1.6689300537109375e-06:6282410.649797678] [-7.152557373046875e-06:6304841.6581840515] [-2.8014183044433594e-06:5703770.5131111145] [3.1709671020507813e-05:7126930.8821361065] [-1618.4523093326832:990.91064107107036] [-1501.096561051716:873.93775530048151] [-99.999999999999986:0] [-1264.8365922874914:739.12218606952968] [6.7013513252127899:87.751011360133461] [-1320.3251760906351:990.0508324563707] [-1367.1024985985787:991.30413831410988] [1.7157530765509392:35.928919996651253] [-89.232844181683163:89.132131592934257] [-1207.0404319816257:815.90773703756952] [-1191.4867689850371:823.04851437330888] [-1231.4914094594424:1051.4028083870071] [-1190.6293602071735:878.77220473826503] [-0.1818999505924988:0.20881033852695929] [6.597732737660408:5861835.0345010757] [-7488.1700000000019:5602.5999999999985] [6.3366747498512268:6092595.2695744038] [6.783537283539772:6123250.387165308] [6.8815951347351074:6937300.0202460289] [-4219.7003197978556:782.51998140328215] [-6973.0000000000036:6285.4000000000015] [13.47651911728226:80.397883840034666] [0:2322.866240597381] [0:2324.4215615553235] [0:4778.3199999999997] [0:1847.4358166225895] [0:2317.4184171898719] [0.0014850494458735887:2345.4826675217619] [0.83248627530087504:4023.9784678456676] [0.050521537054582906:1.8966339782533463] [0:1842.9601208789552] [0.0033829117335329633:1869.1400247090651] [0.0037186392118476116:1976.7488172690898] [20.094057418356446:76.477115348306398] [0:2367.1908680596389] [0:2370.8701442250044] [0:2392.7391324113837] [0:2388.2567937956578] [1.3064950227844176e-06:1913.835466978413] [0:2358.8774477773295] [0:92.831023396070904] [0:2510.944375764635] [0.0012918707573557572:2506.4737480767035] [0.0056311340794290999:2669.631225869241] [0.21922489141035248:1301.8132363002146] [0.33184265423363718:1257.580454383856] [2.5686052124957639:2421.1226805969736] [0.3253317221364766:5659.6523543175381] [1.3006187361356398:1008.7571119052857] [2.6045224674668814:2474.5202337352807] [2.51727526302771:2468.3183079931978] [2.623279461806368:2633.8754754631109] [0:2636.7138880000002] [1.6629226887331743:769.67263954065959] [1.9261139751829217:624.9866154487521] [-626057.21768598177:-320137.9786759995] [1428475.7284075161:1906581.8523880469] [10211.834999999999:64523.970000000001] [32.366227779021528:68.191318256428914] [10205.124358606656:64454.036888613868] [10220.137615907814:64505.812272480995] [10202.854949081217:64593.332698385624] [20.850923807966154:71.809215945756065] [10221.445431525164:64520.862965032007] [10211.834999999999:64515.889999999999] [10225.036354188318:64899.970861441754] [10225.036354188318:64899.970861441754] [10225.036354188318:64899.970861441754] [10225.036354188318:64899.970861441754] [10225.036354188318:64899.970861441754] [10236.744455577116:64410.577741520472] [10243.384936642226:64382.134388447652] [10218.385:64515.889999999999] [10233.902905490491:64474.282533406593] [-5022.6299999999974:4399.010000000002] [10198.852500000001:64558.307500000003] none [10237.43:64854] [10220.635701837447:64564.975641261379] [10211.834999999999:64519.244999999995] none [10239.698308953826:64426.910831313668] [0:44529] [0:100] [3.4677246622738496:95.992261695529479] [-1.0440601574574801e-10:100.0000000000564] [-863.80526778349315:925.57783660593134] [1.1444091796875e-05:3899864.8774521351] [-2.0861625671386719e-06:3824070.3421671391] [1.3828277587890625e-05:3937965.2590503693] [9.2629764698224939:47.304670398016285] [-99.999999999999986:0] [0:100] [-89.579357501619484:89.344428876051609] [-2.6226043701171875e-06:5590102.057790041] [-86.371057511713445:80.962839899458785] [-0.2237951237902501:0.17398011895338655] [-1.5020370483398438e-05:5572945.411973238] [2.4580821117362164:37.979242305397868] [-77.347322637711528:68.876221443391017] [-5.3644180297851563e-07:5712474.3781468868] [-7628.9499999999971:4909] [-6.198883056640625e-06:5613736.1248521805] [1.6689300537109375e-06:6280342.2259979248] [-7.152557373046875e-06:6304732.3183860779] [-2.8014183044433594e-06:5694809.8979482651] [3.1709671020507813e-05:7158258.0027608871] [-1251.1599607823616:1025.8168162094253] [-1526.6949474093853:831.98169823318312] [-99.999999999999986:0] [-1274.178490001726:752.97370422650579] [7.1548981451916989:92.090026716807543] [-1376.1944832416411:990.0508324563707] [-1367.1024985985787:936.89076421534992] [1.6922992329390976:34.208810128191239] [-89.232270724302651:89.130322166821429] [-1203.5935173150308:822.88630742264263] [-1187.5667189168082:823.04851437330888] [-1174.5870530434913:1051.4028083870071] [-1187.4208987744371:883.47128916188672] [-0.21054405345671867:0.20881033852695929] [7.1465583592653275:5871706.3390438557] [-8678.7099999999991:5602.5999999999985] [6.7795668393373489:6092595.2695744038] [7.0462230741977692:6119465.9571876526] [7.1809801012277603:6937300.0202460289] [-3605.6559883981608:825.64991213719622] [-8027.7900000000009:6285.4000000000015] [13.824048463992606:87.240218777969801] [0:2322.866240597381] [0:2324.4215615553235] [0:2852.9700000000012] [0:1956.3044900952298] [0:2317.4184171898719] [0.0013260230091797138:2345.4826675217619] [0.77302296992224107:3813.5458333038287] [0.05150467817628409:1.8970568034531554] [0:1955.5230354478413] [0.0033829117335329633:1974.8075545359186] [0.0037186392118476116:1984.4307140967078] [20.357132183426284:83.32838794961468] [0:2364.3396663318154] [0:2369.3324217703562] [0:2390.0783205047669] [0:2386.3800824571649] [1.0451960182275341e-06:1694.0164264983318] [0:2360.7086673228523] [0:80.880918668940012] [0:2510.9226030258437] [0.0012918707573557572:2506.0610978182326] [0.0056311340794290999:2675.492104783882] [0.2035659705953273:1260.7722908501989] [0.30971981061806136:1228.3462488021769] [2.6733047636334559:2423.1604030777357] [0.30209374198387112:5318.0725529363208] [1.3362647782644785:1006.7808748417762] [2.654472277910954:2473.7554360097224] [2.6037601347546109:2468.3183079931978] [2.6797350804189133:2633.8754754631109] [0:2636.7138880000002] [1.6747073105876347:772.66926221498193] [1.9305528354311006:626.03894929426463] [-626012.98490598181:-320170.6699439995] [1428475.7284075161:1906591.7160006459] [10211.834999999999:64523.970000000001] [31.992286751866356:68.045756493561854] [10205.999934998055:64453.849281133378] [10220.137615907814:64505.812272480995] [10202.854949081217:64570.806549789726] [20.786085861127638:78.508406681400515] [10222.022500459025:64516.162773739619] [10211.834999999999:64515.889999999999] [10224.794939531012:64871.545109970772] [10224.794939531012:64871.545109970772] [10224.794939531012:64871.545109970772] [10224.794939531012:64871.545109970772] [10224.794939531012:64871.545109970772] [10236.731253638003:64410.704647282633] [10243.310789918263:64382.190444691798] [10218.385:64515.889999999999] [10233.943465966213:64473.421138868674] [-5960.0400000000009:3804.6300000000047] [10197.0975:64545.762500000004] none [10231.76:64854] [10220.635701837447:64565.016177564568] [10211.834999999999:64519.244999999995] none [10239.608045410187:64426.822300000524] [0:44529] [0:100] [2.9265509738149129:99.70097502159922] [-1.0440601574574801e-10:100.0000000000548] [-1212.3456868030003:2000.0000000053426] [1.1444091796875e-05:4721648.4172968864] [-2.0861625671386719e-06:4646405.4476463795] [1.3828277587890625e-05:4673698.6817879677] [9.2629764698224939:47.304670398016285] [-99.999999999999986:0] [0:100] [-89.579363990114686:89.345429970950917] [-2.6226043701171875e-06:5603592.6058249474] [-88.153528668240327:97.281015873512544] [-0.19274851651620117:0.17398011895338655] [-1.5020370483398438e-05:5572945.411973238] [2.4554972334822458:37.950352011243737] [-77.262534660595719:68.843125262423641] [-5.3644180297851563e-07:5725200.5557727814] [-7049.9200000000055:5106.0200000000041] [-6.198883056640625e-06:5621025.2407774925] [1.6689300537109375e-06:6282410.649797678] [-7.152557373046875e-06:6304841.6581840515] [-2.8014183044433594e-06:5703770.5131111145] [3.1709671020507813e-05:7126930.8821361065] [-1618.4523093326832:1059.987755068707] [-1526.6949474093853:860.81826225818804] [-99.999999999999986:0] [-1273.9534072437959:753.21108788024117] [6.7013513252127899:92.403250545109287] [-1376.1944832416411:936.18029847506841] [-1359.3105821478894:950.11925742468156] [1.7398727864037362:35.067961948620287] [-89.232844181683163:89.126011863554723] [-1188.0327737824559:822.88630742264263] [-1173.5861876608319:823.04851437330888] [-1260.6052263345628:971.34945301890548] [-1173.0470605532844:883.47128916188672] [-0.1818999505924988:0.20881033852695929] [6.6390886753797531:5874302.7239603996] [-7601.9200000000055:5602.5999999999985] [7.0729193091392517:6089347.3479669094] [6.8107848316431046:6123250.387165308] [7.1386652141809464:6930937.2677195072] [-4219.7003197978556:2007.0690935912644] [-7974.9300000000003:6285.4000000000015] [13.47651911728226:87.642281155764096] [0:2308.4347161517017] [0:2315.4503442895229] [0:4778.3199999999997] [0:2157.3135053040651] [0:2306.7926015855319] [0.0014850494458735887:2324.6824161928289] [0.89652368109325009:3813.5458333038287] [0.051291076657921257:1.8976840568194915] [0:2155.5522372808273] [0.0033829117335329633:2172.9354379035026] [0.0037186392118476116:2161.8738820264166] [19.725407934563719:83.766133716912478] [0:2367.1908680596389] [0:2370.8701442250044] [0:2392.7391324113837] [0:2388.2567937956578] [1.633118778480522e-06:1694.0164264983318] [0:2360.7086673228523] [0:92.831023396070904] [0:2510.944375764635] [0.0012918707573557572:2506.4737480767035] [0.0056311340794290999:2669.631225869241] [0.23608834459576422:1244.1157325150612] [0.3555457009646113:1223.4415243457622] [2.5766429080064146:2423.6960873757253] [0.28051561755645177:6095.0102277265796] [1.3006187361356398:999.88484568038371] [2.6097480398772417:2474.5202337352807] [2.6594960630050295:2467.6602983325947] [2.6718280659842142:2632.6673294815482] [0:2636.7138880000002] [1.6629226887331743:773.12310784473232] [1.9261139751829217:625.87148111660701] [-625962.84647798177:-320170.6699439995] [1428475.7284075161:1906504.502214568] [10211.834999999999:64523.970000000001] [31.931283391600395:67.37656715083186] [10206.281577751723:64453.84806872761] [10220.321568885329:64505.812272480995] [10202.854949081217:64570.806549789726] [20.733612838002998:72.55189202434542] [10225.079113332637:64515.438089513686] [10211.834999999999:64515.889999999999] [10224.794939531012:65030.755461909474] [10224.794939531012:65030.755461909474] [10224.794939531012:65030.755461909474] [10224.794939531012:65030.755461909474] [10224.794939531012:65030.755461909474] [10236.795702293877:64410.431703968854] [10243.34688191177:64382.242196327155] [10218.385:64515.889999999999] [10233.81538848245:64472.777167102489] [-5960.0400000000009:3693.4499999999971] [10196.9575:64543.990000000005] none [10239.889999999999:64854] [10220.635701837447:64565.016177564568] [10211.834999999999:64519.244999999995] none [10239.788876194143:64425.85750198071] [0:41143] [0:100] [2.9265509738149129:96.754238148466541] [-1.4600723277888494e-11:100.0000000000542] [-1212.3456868030003:1163.2489747615032] [1.1444091796875e-05:5328269.2652144432] [-2.0861625671386719e-06:5247125.4950630665] [1.3828277587890625e-05:5265946.8130857944] [9.2629764698224939:47.378680974436719] [-99.999999999999986:0] [0:100] [-89.579357501619484:89.345429970950917] [-2.6226043701171875e-06:5590102.057790041] [-89.223707943308185:81.81783133455049] [-0.2237951237902501:0.17391282681638473] [-1.5020370483398438e-05:5572945.411973238] [2.4580821117362164:37.921750620031148] [-77.014350941120142:69.549528568624694] [-5.3644180297851563e-07:5710125.594373703] [-7628.9499999999971:4909] [-6.198883056640625e-06:5613736.1248521805] [1.6689300537109375e-06:6280342.2259979248] [-7.152557373046875e-06:6304732.3183860779] [-2.8014183044433594e-06:5694809.8979482651] [3.1709671020507813e-05:7158258.0027608871] [-1618.4523093326832:1467.8505517790297] [-1492.0302649555961:873.93775530048151] [-99.999999999999986:0] [-1264.8365922874914:745.90629968142434] [6.7013513252127899:92.996707760843321] [-1367.4459480695587:948.65052008405473] [-1313.7308119127556:991.30413831410988] [1.7157530765509392:35.928919996651253] [-89.232270724302651:89.126278220684512] [-1169.4146860294434:822.88630742264263] [-1154.7369260381292:821.40876419087385] [-1271.8215898521303:1027.6708767267482] [-1150.8164761252219:883.47128916188672] [-0.21054405345671867:0.17038364494449548] [5.5909523516893387:5874302.7239603996] [-8678.7099999999991:5581.3300000000017] [6.797122448682785:6092595.2695744038] [5.8819112628698349:6119465.9571876526] [7.1933120340108871:6937300.0202460289] [-4219.7003197978556:2007.0690935912644] [-8027.7900000000009:5505.4800000000032] [13.47651911728226:87.642281155764096] [0:2322.866240597381] [0:2324.4215615553235] [0:4778.3199999999997] [0:2291.2715031980028] [0:2317.4184171898719] [0.0014850494458735887:2345.4826675217619] [0.83248627530087504:4246.0212749053881] [0.048170039825466478:1.8997355423938316] [0:2290.6604931903521] [0.0033829117335329633:2308.3044134633637] [0.0037186392118476116:2294.765088867659] [19.725407934563719:83.766133716912478] [0:2364.3396663318154] [0:2369.3324217703562] [0:2389.5869087299802] [0:2386.3800824571649] [1.3064950227844176e-06:1619.4491411986655] [0:2360.7086673228523] [0:83.69959658113909] [0:2510.9226030258437] [0.0012918707573557572:2506.0610978182326] [0.0056311340794290999:2675.492104783882] [0.21922489141035248:1260.5496087639854] [0.33184265423363718:1240.1580893893779] [2.3645194758532524:2423.6960873757253] [0.28051561755645177:5700.856210884911] [1.3362647782644785:988.02668415770427] [2.4252651943385151:2473.7554360097224] [2.6071291584198097:2468.3183079931978] [2.6820350545827858:2633.8754754631109] [0:2559.2543839999998] [1.6747073105876347:770.97338938065343] [1.9305528354311006:623.97286630544102] [-625976.2952029818:-320039.18592699949] [1428486.7322266039:1906443.2412566987] [10211.834999999999:64523.970000000001] [31.84924470827637:67.875428011906195] [10206.829592784801:64453.286194296576] [10220.321568885329:64505.812272480995] [10202.854949081217:64570.806549789726] [20.733612838002998:71.679067003569969] [10226.980460859562:64519.678212770865] [10211.834999999999:64515.889999999999] [10224.794939531012:65030.755461909474] [10224.794939531012:65030.755461909474] [10224.794939531012:65030.755461909474] [10224.794939531012:65030.755461909474] [10224.794939531012:65030.755461909474] [10236.731123913263:64409.278438798116] [10243.457857528207:64382.038146901308] [10218.385:64515.889999999999] [10233.629965909255:64471.504473099129] [-5960.0400000000009:3804.6300000000047] [10196.5525:64561.345000000001] none [10237.43:64854] [10220.642796639848:64564.998127854342] [10211.834999999999:64519.244999999995] none [10239.773293504539:64426.910831313668] [0:44529] [0:100] [3.4677246622738496:93.615996765052898] [-1.4600723277888494e-11:100.00000000005885] [-856.53184927571408:845.20628111349424] [1.1444091796875e-05:5717219.191311121] [-2.0861625671386719e-06:5634367.5183680058] [1.3828277587890625e-05:5646523.8456134796] [9.2629764698224939:47.378680974436719] [-99.999999999999986:0] [0:100] [-89.575990738367508:89.342088096530816] [-2.6226043701171875e-06:5537856.0119900703] [-89.978523624359724:79.217153138818588] [-0.19274851651620117:0.17398011895338655] [-1.5020370483398438e-05:5572945.411973238] [2.4554972334822458:37.88176726583486] [-76.674434487714635:68.876221443391017] [-5.3644180297851563e-07:5652538.8937342167] [-6987.3400000000038:5770.0699999999997] [-6.198883056640625e-06:5572942.7654919624] [1.6689300537109375e-06:6282410.649797678] [-7.152557373046875e-06:6248311.6787748337] [-2.8014183044433594e-06:5648595.7190995216] [3.1709671020507813e-05:7126930.8821361065] [-1251.1599607823616:1235.5343771272503] [-1501.096561051716:831.98169823318312] [-99.999999999999986:0] [-1274.178490001726:752.97370422650579] [7.1548981451916989:86.813868287907496] [-1352.5107127742958:990.0508324563707] [-1367.1024985985787:936.89076421534992] [1.6922992329390976:35.067961948620287] [-89.227592323420666:89.130984333778954] [-1159.7404084139002:820.88421645338508] [-1158.3900248234884:815.93074460084904] [-1348.3057268757184:1051.4028083870071] [-1123.5960381560094:873.81069753092106] [-0.1818999505924988:0.17355300837362339] [6.2064702361822128:5874302.7239603996] [-7601.9200000000055:5602.5999999999985] [5.8676043301820755:6089347.3479669094] [6.3497113585472107:6089406.0075027943] [6.4630412757396698:6929339.5071249008] [-3735.86928841997:1550.0962688582586] [-7974.9300000000003:5590.8799999999974] [13.824048463992606:81.325062786045663] [0:2322.866240597381] [0:2324.4215615553235] [0:2852.9700000000012] [0:2377.3055071875956] [0:2317.4184171898719] [0.0014850494458735887:2345.4826675217619] [0.77302296992224107:4142.7340409835742] [0.04653497228767673:1.8997355423938316] [0:2373.6822698853371] [0.0033829117335329633:2391.0707206837528] [0.0037186392118476116:2376.2415377258012] [19.725407934563719:76.477115348306398] [0:2353.2649685044116] [0:2360.708106795917] [0:2377.5068651287247] [0:2376.6774537365227] [1.0451960182275341e-06:1690.8792714422129] [0:2360.7086673228523] [0:81.10144707605842] [0:2499.6623129484578] [0.0012918707573557572:2506.4737480767035] [0.0056311340794290999:2669.631225869241] [0.2035659705953273:1259.8549136289678] [0.30971981061806136:1228.3462488021769] [2.4912788354943758:2423.6960873757253] [0.3253317221364766:5700.856210884911] [1.4010474057089832:983.0664613524475] [2.5198633610867098:2467.6721839626093] [2.4223138380858238:2467.6602983325947] [2.5422512219959046:2632.3638629803631] [0:2413.862455] [1.7156288554111909:772.11083289097587] [1.9525473070767998:624.11304590783038] [-626057.21768598177:-319953.28261899948] [1428486.1272024813:1906532.4714034605] [10211.834999999999:64523.970000000001] [31.84924470827637:68.191318256428914] [10207.325784833673:64453.242230526725] [10220.321568885329:64505.812272480995] [10202.854949081217:64570.806549789726] [20.491688584145521:78.508406681400515] [10228.151932058418:64520.022199043713] [10211.834999999999:64515.889999999999] [10225.972873196952:64872.764151659947] [10225.972873196952:64872.764151659947] [10225.972873196952:64872.764151659947] [10225.972873196952:64872.764151659947] [10225.972873196952:64872.764151659947] [10236.731123913263:64410.577741520472] [10243.443100225377:64382.242196327155] [10218.385:64483.485000000001] [10233.629965909255:64470.799080538498] [-5960.0400000000009:3865.9300000000003] [10196.8025:64561.345000000001] none [10236.719999999999:64854] [10220.669505999307:64564.975641261379] [10211.834999999999:64519.244999999995] none [10239.733426306429:64426.822300000524] [0:44529] [0:100] [2.9265509738149129:99.70097502159922] [-6.3678888590982314e-12:100.00000000005093] [-1212.3456868030003:2000.0000000053426] [1.1444091796875e-05:5889972.6435084343] [-2.0861625671386719e-06:5795461.3225364685] [1.3828277587890625e-05:5806493.8446176052] [9.2629764698224939:47.130858902806146] [-99.999999999999986:0] [0:100] [-89.574671114193137:89.342582315992288] [-2.6226043701171875e-06:5424762.4563281536] [-90.203350797630222:97.281015873512544] [-0.2237951237902501:0.17398011895338655] [-1.5020370483398438e-05:5570405.6726036072] [2.4580821117362164:37.85332364068995] [-75.984319323996871:68.843125262423641] [-5.3644180297851563e-07:5561388.8339474201] [-7628.9499999999971:4583.6300000000047] [-6.198883056640625e-06:5452067.5498180389] [1.6689300537109375e-06:6224948.4141395092] [-7.152557373046875e-06:6208162.1478598118] [-2.8014183044433594e-06:5547053.2272806168] [3.1709671020507813e-05:7076750.5237486362] [-1618.4523093326832:1059.987755068707] [-1526.6949474093853:860.81826225818804] [-99.999999999999986:0] [-1274.178490001726:753.21108788024117] [6.7013513252127899:92.090026716807543] [-1397.0050612161795:936.18029847506841] [-1391.6654864310694:911.49195935053285] [1.6922992329390976:35.928919996651253] [-89.224184902488574:89.132131592934257] [-1162.625944833158:815.90773703756952] [-1165.0122839830779:823.04851437330888] [-1392.2751706762429:968.44152625886636] [-1091.6343730263839:878.77220473826503] [-0.21054405345671867:0.20881033852695929] [6.597732737660408:5870041.9583678246] [-8678.7099999999991:5602.5999999999985] [6.3366747498512268:6060142.1203093529] [6.783537283539772:6062681.9561853409] [6.8815951347351074:6887221.6673862934] [-4219.7003197978556:1063.3438057298918] [-8027.7900000000009:6285.4000000000015] [13.47651911728226:87.240218777969801] [0:2308.4347161517017] [0:2315.4503442895229] [0:4778.3199999999997] [0:2414.1480456593254] [0:2306.7926015855319] [0.0014850494458735887:2324.6824161928289] [0.77302296992224107:4309.9411341409577] [0.045873102185065094:1.8982223610751841] [0:2407.37643972364] [0.0033829117335329633:2426.9265838727865] [0.0037186392118476116:2409.6667497016274] [19.725407934563719:83.32838794961468] [0:2329.1119458557919] [0:2334.9662845141979] [0:2358.2597045167481] [0:2355.2182971607149] [1.0451960182275341e-06:1882.9248043373059] [0:2360.1706871757406] [0:81.739578962094825] [0:2491.6183792587121] [0.0012918707573557572:2494.9846520849601] [0.0056311340794290999:2660.2162550718758] [0.2035659705953273:1260.5496087639854] [0.30971981061806136:1240.1580893893779] [2.5686052124957639:2422.8169469375571] [0.30209374198387112:6095.0102277265796] [1.3980763094671658:1023.6401910995922] [2.6045224674668814:2462.2513998747854] [2.51727526302771:2461.7355910636206] [2.623279461806368:2624.3516661046579] [0:2636.7138880000002] [1.6952017078210007:768.93948567612631] [1.9379218340060296:624.9866154487521] [-626012.98490598181:-320073.71344599948] [1428475.7284075161:1906516.2348733419] [10211.834999999999:64523.970000000001] [31.931283391600395:68.045756493561854] [10207.852950758494:64453.30185219035] [10220.137615907814:64505.812272480995] [10202.854949081217:64570.806549789726] [20.765400403510931:78.508406681400515] [10228.04457396925:64522.845928137664] [10211.834999999999:64515.889999999999] [10208.343742021587:64880.017770614097] [10208.343742021587:64880.017770614097] [10208.343742021587:64880.017770614097] [10208.343742021587:64880.017770614097] [10208.343742021587:64880.017770614097] [10236.737063449589:64410.704647282633] [10243.384936642226:64382.134388447652] [10218.385:64483.485000000001] [10233.76537686305:64473.678212505125] [-5039.9600000000064:3597.3399999999965] [10199.404999999999:64561.345000000001] none [10239.889999999999:64854] [10220.649041853198:64565.016177564568] [10211.834999999999:64519.244999999995] none [10239.698308953826:64426.910831313668] [0:41143] [0:100] [3.4677246622738496:99.70097502159922] [-1.0440601574574801e-10:100.00000000006801] [-856.53184927571408:2000.0000000053426] [1.1444091796875e-05:5889972.6435084343] [-2.0861625671386719e-06:5795461.3225364685] [1.3828277587890625e-05:5806493.8446176052] [9.2629764698224939:47.378680974436719] [-99.999999999999986:0] [0:100] [-89.579363990114686:89.345010799337331] [-2.6226043701171875e-06:5245292.0726947784] 